{"learner":{"attributes":{},"feature_names":["day_of_week","hour_of_day"],"feature_types":[],"gradient_booster":{"model":{"cats":{"enc":[],"feature_segments":[],"sorted_idx":[]},"gbtree_model_param":{"num_parallel_tree":"1","num_trees":"50"},"iteration_indptr":[0,1,2,3,4,5,6,7,8,9,10,11,12,13,14,15,16,17,18,19,20,21,22,23,24,25,26,27,28,29,30,31,32,33,34,35,36,37,38,39,40,41,42,43,44,45,46,47,48,49,50],"tree_info":[0,0,0,0,0,0,0,0,0,0,0,0,0,0,0,0,0,0,0,0,0,0,0,0,0,0,0,0,0,0,0,0,0,0,0,0,0,0,0,0,0,0,0,0,0,0,0,0,0,0],"trees":[{"base_weights":[-3.6140486E-7,-1.0237293E1,1.2059201E0,-1.082369E1,-6.065235E0,2.9372032E0,-4.4505672E0,-1.1967753E0,-9.5441437E-1,-2.877296E-1,-7.7425045E-1,-2.4784074E0,3.695459E0,-2.4468362E0,-7.07545E0,2.1849714E-1,-7.268662E-1,4.245603E-1,1.2012788E-1,-4.5700517E-1,-1.19768314E-1,-1.0399295E0,-5.236466E-1],"categories":[],"categories_nodes":[],"categories_segments":[],"categories_sizes":[],"default_left":[0,0,0,0,0,0,0,0,0,0,0,0,0,0,0,0,0,0,0,0,0,0,0],"id":0,"left_children":[1,3,5,7,9,11,13,-1,-1,-1,-1,15,17,19,21,-1,-1,-1,-1,-1,-1,-1,-1],"loss_changes":[5.962809E4,1.1796133E3,4.2328543E4,5.372031E2,3.2527954E2,1.3597297E4,5.310619E3,0E0,0E0,0E0,0E0,9.107761E3,3.9782734E3,1.5222056E3,2.6228203E3,0E0,0E0,0E0,0E0,0E0,0E0,0E0,0E0],"parents":[2147483647,0,0,1,1,2,2,3,3,4,4,5,5,6,6,11,11,12,12,13,13,14,14],"right_children":[2,4,6,8,10,12,14,-1,-1,-1,-1,16,18,20,22,-1,-1,-1,-1,-1,-1,-1,-1],"split_conditions":[4E0,3E0,2E1,5E0,2E0,7E0,2.2E1,-1.1967753E0,-9.5441437E-1,-2.877296E-1,-7.7425045E-1,5E0,1.8E1,4E0,4E0,2.1849714E-1,-7.268662E-1,4.245603E-1,1.2012788E-1,-4.5700517E-1,-1.19768314E-1,-1.0399295E0,-5.236466E-1],"split_indices":[1,1,1,0,0,1,1,0,0,0,0,0,1,0,0,0,0,0,0,0,0,0,0],"split_type":[0,0,0,0,0,0,0,0,0,0,0,0,0,0,0,0,0,0,0,0,0,0,0],"sum_hessian":[4.828E3,5.08E2,4.32E3,4.44E2,6.4E1,3.308E3,1.012E3,2.3E2,2.14E2,2.3E1,4.1E1,4.06E2,2.902E3,5.75E2,4.37E2,2.06E2,2E2,2.377E3,5.25E2,2.12E2,3.63E2,1.54E2,2.83E2],"tree_param":{"num_deleted":"0","num_feature":"2","num_nodes":"23","size_leaf_vector":"1"}},{"base_weights":[-1.1015863E-3,-9.219877E0,1.0848409E0,-9.746155E0,-5.4750504E0,2.6434937E0,-4.0076237E0,-1.077616E0,-8.594169E-1,-2.6015556E-1,-6.986689E-1,-2.231816E0,3.3261003E0,-2.2031538E0,-6.3714747E0,1.9675295E-1,-6.545412E-1,3.6629876E-1,-4.133934E-3,-4.1151914E-1,-1.0782441E-1,-9.366075E-1,-4.7146636E-1],"categories":[],"categories_nodes":[],"categories_segments":[],"categories_sizes":[],"default_left":[0,0,0,0,0,0,0,0,0,0,0,0,0,0,0,0,0,0,0,0,0,0,0],"id":1,"left_children":[1,3,5,7,9,11,13,-1,-1,-1,-1,15,17,19,21,-1,-1,-1,-1,-1,-1,-1,-1],"loss_changes":[4.8353406E4,9.4979297E2,3.430803E4,4.3540234E2,2.6416333E2,1.101951E4,4.306914E3,0E0,0E0,0E0,0E0,7.3853896E3,3.2934531E3,1.2344639E3,2.1289727E3,0E0,0E0,0E0,0E0,0E0,0E0,0E0,0E0],"parents":[2147483647,0,0,1,1,2,2,3,3,4,4,5,5,6,6,11,11,12,12,13,13,14,14],"right_children":[2,4,6,8,10,12,14,-1,-1,-1,-1,16,18,20,22,-1,-1,-1,-1,-1,-1,-1,-1],"split_conditions":[4E0,3E0,2E1,5E0,2E0,7E0,2.2E1,-1.077616E0,-8.594169E-1,-2.6015556E-1,-6.986689E-1,5E0,1.9E1,4E0,4E0,1.9675295E-1,-6.545412E-1,3.6629876E-1,-4.133934E-3,-4.1151914E-1,-1.0782441E-1,-9.366075E-1,-4.7146636E-1],"split_indices":[1,1,1,0,0,1,1,0,0,0,0,0,1,0,0,0,0,0,0,0,0,0,0],"split_type":[0,0,0,0,0,0,0,0,0,0,0,0,0,0,0,0,0,0,0,0,0,0,0],"sum_hessian":[4.828E3,5.08E2,4.32E3,4.44E2,6.4E1,3.308E3,1.012E3,2.3E2,2.14E2,2.3E1,4.1E1,4.06E2,2.902E3,5.75E2,4.37E2,2.06E2,2E2,2.638E3,2.64E2,2.12E2,3.63E2,1.54E2,2.83E2],"tree_param":{"num_deleted":"0","num_feature":"2","num_nodes":"23","size_leaf_vector":"1"}},{"base_weights":[-2.0099962E-3,-8.303578E0,9.758887E-1,-8.775892E0,-4.9422965E0,2.3791156E0,-3.608764E0,-9.703208E-1,-7.7387494E-1,-2.3522396E-1,-6.3046557E-1,-2.0097592E0,2.9936152E0,-1.9837402E0,-5.737542E0,1.7717275E-1,-5.8941275E-1,3.4550765E-1,9.016978E-2,-3.7056047E-1,-9.707159E-2,-8.43551E-1,-4.2448574E-1],"categories":[],"categories_nodes":[],"categories_segments":[],"categories_sizes":[],"default_left":[0,0,0,0,0,0,0,0,0,0,0,0,0,0,0,0,0,0,0,0,0,0,0],"id":2,"left_children":[1,3,5,7,9,11,13,-1,-1,-1,-1,15,17,19,21,-1,-1,-1,-1,-1,-1,-1,-1],"loss_changes":[3.9210375E4,7.6470703E2,2.7806906E4,3.5289062E2,2.1452808E2,8.930266E3,3.4929062E3,0E0,0E0,0E0,0E0,5.9887383E3,2.7992637E3,1.0011145E3,1.7281123E3,0E0,0E0,0E0,0E0,0E0,0E0,0E0,0E0],"parents":[2147483647,0,0,1,1,2,2,3,3,4,4,5,5,6,6,11,11,12,12,13,13,14,14],"right_children":[2,4,6,8,10,12,14,-1,-1,-1,-1,16,18,20,22,-1,-1,-1,-1,-1,-1,-1,-1],"split_conditions":[4E0,3E0,2E1,5E0,2E0,7E0,2.2E1,-9.703208E-1,-7.7387494E-1,-2.3522396E-1,-6.3046557E-1,5E0,1.8E1,4E0,4E0,1.7717275E-1,-5.8941275E-1,3.4550765E-1,9.016978E-2,-3.7056047E-1,-9.707159E-2,-8.43551E-1,-4.2448574E-1],"split_indices":[1,1,1,0,0,1,1,0,0,0,0,0,1,0,0,0,0,0,0,0,0,0,0],"split_type":[0,0,0,0,0,0,0,0,0,0,0,0,0,0,0,0,0,0,0,0,0,0,0],"sum_hessian":[4.828E3,5.08E2,4.32E3,4.44E2,6.4E1,3.308E3,1.012E3,2.3E2,2.14E2,2.3E1,4.1E1,4.06E2,2.902E3,5.75E2,4.37E2,2.06E2,2E2,2.377E3,5.25E2,2.12E2,3.63E2,1.54E2,2.83E2],"tree_param":{"num_deleted":"0","num_feature":"2","num_nodes":"23","size_leaf_vector":"1"}},{"base_weights":[-2.7040797E-3,-7.4783483E0,8.779035E-1,-7.9022226E0,-4.4613853E0,1.9374701E0,-4.0734544E0,-8.7370884E-1,-6.968474E-1,-2.126817E-1,-5.689201E-1,-1.8097961E0,2.4204123E0,-6.557469E0,-2.796327E0,1.5954109E-1,-5.307647E-1,2.9767042E-1,-4.293449E-2,-4.944516E-1,-7.597402E-1,-1.7876378E-1,-6.1261034E-1],"categories":[],"categories_nodes":[],"categories_segments":[],"categories_sizes":[],"default_left":[0,0,0,0,0,0,0,0,0,0,0,0,0,0,0,0,0,0,0,0,0,0,0],"id":3,"left_children":[1,3,5,7,9,11,13,-1,-1,-1,-1,15,17,19,21,-1,-1,-1,-1,-1,-1,-1,-1],"loss_changes":[3.17964E4,6.1566016E2,2.2677123E4,2.8601758E2,1.742174E2,6.446959E3,2.3990332E3,0E0,0E0,0E0,0E0,4.856206E3,5.0013027E3,3.9519336E2,1.6851973E3,0E0,0E0,0E0,0E0,0E0,0E0,0E0,0E0],"parents":[2147483647,0,0,1,1,2,2,3,3,4,4,5,5,6,6,11,11,12,12,13,13,14,14],"right_children":[2,4,6,8,10,12,14,-1,-1,-1,-1,16,18,20,22,-1,-1,-1,-1,-1,-1,-1,-1],"split_conditions":[4E0,3E0,2.1E1,5E0,2E0,7E0,4E0,-8.7370884E-1,-6.968474E-1,-2.126817E-1,-5.689201E-1,5E0,1.9E1,2.2E1,7E0,1.5954109E-1,-5.307647E-1,2.9767042E-1,-4.293449E-2,-4.944516E-1,-7.597402E-1,-1.7876378E-1,-6.1261034E-1],"split_indices":[1,1,1,0,0,1,0,0,0,0,0,0,1,1,0,0,0,0,0,0,0,0,0],"split_type":[0,0,0,0,0,0,0,0,0,0,0,0,0,0,0,0,0,0,0,0,0,0,0],"sum_hessian":[4.828E3,5.08E2,4.32E3,4.44E2,6.4E1,3.559E3,7.61E2,2.3E2,2.14E2,2.3E1,4.1E1,4.06E2,3.153E3,2.57E2,5.04E2,2.06E2,2E2,2.638E3,5.15E2,1.03E2,1.54E2,3.88E2,1.16E2],"tree_param":{"num_deleted":"0","num_feature":"2","num_nodes":"23","size_leaf_vector":"1"}},{"base_weights":[-3.368541E-3,-6.7351346E0,7.8961277E-1,-7.11553E0,-4.0272713E0,1.7436904E0,-3.6687937E0,-7.8671616E-1,-6.2748677E-1,-1.922997E-1,-5.133827E-1,-7.489254E-1,2.3432212E0,-5.9065833E0,-2.518262E0,2.4147435E-1,-4.0410382E-1,3.123947E-1,2.3616409E-2,-4.4548193E-1,-6.842563E-1,-1.6093339E-1,-5.518729E-1],"categories":[],"categories_nodes":[],"categories_segments":[],"categories_sizes":[],"default_left":[0,0,0,0,0,0,0,0,0,0,0,0,0,0,0,0,0,0,0,0,0,0,0],"id":4,"left_children":[1,3,5,7,9,11,13,-1,-1,-1,-1,15,17,19,21,-1,-1,-1,-1,-1,-1,-1,-1],"loss_changes":[2.5783316E4,4.9564453E2,1.8386484E4,2.318164E2,1.4147974E2,5.3218193E3,1.9470088E3,0E0,0E0,0E0,0E0,7.2066294E3,4.720509E3,3.2009277E2,1.3683591E3,0E0,0E0,0E0,0E0,0E0,0E0,0E0,0E0],"parents":[2147483647,0,0,1,1,2,2,3,3,4,4,5,5,6,6,11,11,12,12,13,13,14,14],"right_children":[2,4,6,8,10,12,14,-1,-1,-1,-1,16,18,20,22,-1,-1,-1,-1,-1,-1,-1,-1],"split_conditions":[4E0,3E0,2.1E1,5E0,2E0,9E0,4E0,-7.8671616E-1,-6.2748677E-1,-1.922997E-1,-5.133827E-1,5E0,1.8E1,2.2E1,7E0,2.4147435E-1,-4.0410382E-1,3.123947E-1,2.3616409E-2,-4.4548193E-1,-6.842563E-1,-1.6093339E-1,-5.518729E-1],"split_indices":[1,1,1,0,0,1,0,0,0,0,0,0,1,1,0,0,0,0,0,0,0,0,0],"split_type":[0,0,0,0,0,0,0,0,0,0,0,0,0,0,0,0,0,0,0,0,0,0,0],"sum_hessian":[4.828E3,5.08E2,4.32E3,4.44E2,6.4E1,3.559E3,7.61E2,2.3E2,2.14E2,2.3E1,4.1E1,6.9E2,2.869E3,2.57E2,5.04E2,3.52E2,3.38E2,2.093E3,7.76E2,1.03E2,1.54E2,3.88E2,1.16E2],"tree_param":{"num_deleted":"0","num_feature":"2","num_nodes":"23","size_leaf_vector":"1"}},{"base_weights":[-3.8164516E-3,-6.0657854E0,7.1026504E-1,-6.4071546E0,-3.6354008E0,1.7437235E0,-2.6662645E0,-7.083851E-1,-5.650299E-1,-1.7387097E-1,-4.632667E-1,-6.742679E-1,2.3810234E0,-1.4134781E0,-4.307677E0,2.1739534E-1,-3.638126E-1,2.8117013E-1,6.619728E-2,-2.872376E-1,-5.5589925E-2,-6.1627215E-1,-3.2800728E-1],"categories":[],"categories_nodes":[],"categories_segments":[],"categories_sizes":[],"default_left":[0,0,0,0,0,0,0,0,0,0,0,0,0,0,0,0,0,0,0,0,0,0,0],"id":5,"left_children":[1,3,5,7,9,11,13,-1,-1,-1,-1,15,17,19,21,-1,-1,-1,-1,-1,-1,-1,-1],"loss_changes":[2.0907793E4,3.9900195E2,1.5082792E4,1.8788672E2,1.1489313E2,5.1007266E3,2.076983E3,0E0,0E0,0E0,0E0,5.8411396E3,1.9371348E3,7.190486E2,8.147241E2,0E0,0E0,0E0,0E0,0E0,0E0,0E0,0E0],"parents":[2147483647,0,0,1,1,2,2,3,3,4,4,5,5,6,6,11,11,12,12,13,13,14,14],"right_children":[2,4,6,8,10,12,14,-1,-1,-1,-1,16,18,20,22,-1,-1,-1,-1,-1,-1,-1,-1],"split_conditions":[4E0,3E0,2E1,5E0,2E0,9E0,2.2E1,-7.083851E-1,-5.650299E-1,-1.7387097E-1,-4.632667E-1,5E0,1.8E1,4E0,4E0,2.1739534E-1,-3.638126E-1,2.8117013E-1,6.619728E-2,-2.872376E-1,-5.5589925E-2,-6.1627215E-1,-3.2800728E-1],"split_indices":[1,1,1,0,0,1,1,0,0,0,0,0,1,0,0,0,0,0,0,0,0,0,0],"split_type":[0,0,0,0,0,0,0,0,0,0,0,0,0,0,0,0,0,0,0,0,0,0,0],"sum_hessian":[4.828E3,5.08E2,4.32E3,4.44E2,6.4E1,3.308E3,1.012E3,2.3E2,2.14E2,2.3E1,4.1E1,6.9E2,2.618E3,5.75E2,4.37E2,3.52E2,3.38E2,2.093E3,5.25E2,2.12E2,3.63E2,1.54E2,2.83E2],"tree_param":{"num_deleted":"0","num_feature":"2","num_nodes":"23","size_leaf_vector":"1"}},{"base_weights":[-4.0553045E-3,-4.272631E0,8.40768E-1,-5.7693005E0,-2.379155E0,2.129224E0,-1.9406148E0,-6.378532E-1,-5.087897E-1,-3.7822637E-1,-4.423658E0,3.3329568E0,1.1116723E0,-9.275413E-1,-3.8790648E0,-7.9155155E-2,7.749085E-2,-3.5938612E-1,-5.2031857E-1,2.345244E-1,3.6744624E-1,-2.4844371E-1,1.685073E-1,-2.4187088E-1,-1.0321177E-2,-5.550425E-1,-2.95322E-1],"categories":[],"categories_nodes":[],"categories_segments":[],"categories_sizes":[],"default_left":[0,0,0,0,0,0,0,0,0,0,0,0,0,0,0,0,0,0,0,0,0,0,0,0,0,0,0],"id":6,"left_children":[1,3,5,7,9,11,13,-1,-1,15,17,19,21,23,25,-1,-1,-1,-1,-1,-1,-1,-1,-1,-1,-1,-1],"loss_changes":[1.7417893E4,2.2477324E3,1.445357E4,1.5228125E2,1.446507E3,3.3720107E3,2.5041646E3,0E0,0E0,8.640491E1,9.449902E1,4.170664E2,3.0868936E3,1.0322898E3,6.613784E2,0E0,0E0,0E0,0E0,0E0,0E0,0E0,0E0,0E0,0E0,0E0,0E0],"parents":[2147483647,0,0,1,1,2,2,3,3,4,4,5,5,6,6,9,9,10,10,11,11,12,12,13,13,14,14],"right_children":[2,4,6,8,10,12,14,-1,-1,16,18,20,22,24,26,-1,-1,-1,-1,-1,-1,-1,-1,-1,-1,-1,-1],"split_conditions":[6E0,3E0,1.9E1,5E0,5E0,5E0,2.2E1,-6.378532E-1,-5.087897E-1,4E0,7E0,2E0,9E0,4E0,4E0,-7.9155155E-2,7.749085E-2,-3.5938612E-1,-5.2031857E-1,2.345244E-1,3.6744624E-1,-2.4844371E-1,1.685073E-1,-2.4187088E-1,-1.0321177E-2,-5.550425E-1,-2.95322E-1],"split_indices":[1,1,1,0,0,0,1,0,0,0,0,0,1,0,0,0,0,0,0,0,0,0,0,0,0,0,0],"split_type":[0,0,0,0,0,0,0,0,0,0,0,0,0,0,0,0,0,0,0,0,0,0,0,0,0,0,0],"sum_hessian":[4.828E3,7.97E2,4.031E3,4.44E2,3.53E2,2.755E3,1.276E3,2.3E2,2.14E2,1.79E2,1.74E2,1.261E3,1.494E3,8.39E2,4.37E2,1.32E2,4.7E1,8.7E1,8.7E1,3.26E2,9.35E2,2.05E2,1.289E3,2.98E2,5.41E2,1.54E2,2.83E2],"tree_param":{"num_deleted":"0","num_feature":"2","num_nodes":"27","size_leaf_vector":"1"}},{"base_weights":[-4.189993E-3,-3.8479092E0,7.5654715E-1,-5.1949472E0,-2.1437292E0,1.9164909E0,-1.7474165E0,-5.7434404E-1,-4.5814734E0,-3.4041312E-1,-3.9863186E0,3.0001378E0,1.0004514E0,-8.350871E-1,-3.4930997E0,-4.083663E-1,-4.7936326E-1,-7.129917E-2,6.9903195E-2,-3.2385588E-1,-4.6887794E-1,2.1114373E-1,3.307408E-1,-3.1450954E-1,1.4176254E-1,-2.1776469E-1,-9.290917E-3,-4.9989638E-1,-2.6589376E-1],"categories":[],"categories_nodes":[],"categories_segments":[],"categories_sizes":[],"default_left":[0,0,0,0,0,0,0,0,0,0,0,0,0,0,0,0,0,0,0,0,0,0,0,0,0,0,0,0,0],"id":7,"left_children":[1,3,5,7,9,11,13,-1,15,17,19,21,23,25,27,-1,-1,-1,-1,-1,-1,-1,-1,-1,-1,-1,-1,-1,-1],"loss_changes":[1.4123196E4,1.8207471E3,1.171412E4,1.2342383E2,1.1749039E3,2.7327783E3,2.0308811E3,0E0,3.1313477E0,7.02079E1,7.673755E1,3.3763184E2,2.589933E3,8.3678894E2,5.368955E2,0E0,0E0,0E0,0E0,0E0,0E0,0E0,0E0,0E0,0E0,0E0,0E0,0E0,0E0],"parents":[2147483647,0,0,1,1,2,2,3,3,4,4,5,5,6,6,8,8,9,9,10,10,11,11,12,12,13,13,14,14],"right_children":[2,4,6,8,10,12,14,-1,16,18,20,22,24,26,28,-1,-1,-1,-1,-1,-1,-1,-1,-1,-1,-1,-1,-1,-1],"split_conditions":[6E0,3E0,1.9E1,5E0,5E0,5E0,2.2E1,-5.7434404E-1,1E0,4E0,7E0,2E0,8E0,4E0,4E0,-4.083663E-1,-4.7936326E-1,-7.129917E-2,6.9903195E-2,-3.2385588E-1,-4.6887794E-1,2.1114373E-1,3.307408E-1,-3.1450954E-1,1.4176254E-1,-2.1776469E-1,-9.290917E-3,-4.9989638E-1,-2.6589376E-1],"split_indices":[1,1,1,0,0,0,1,0,1,0,0,0,1,0,0,0,0,0,0,0,0,0,0,0,0,0,0,0,0],"split_type":[0,0,0,0,0,0,0,0,0,0,0,0,0,0,0,0,0,0,0,0,0,0,0,0,0,0,0,0,0],"sum_hessian":[4.828E3,7.97E2,4.031E3,4.44E2,3.53E2,2.755E3,1.276E3,2.3E2,2.14E2,1.79E2,1.74E2,1.261E3,1.494E3,8.39E2,4.37E2,7E1,1.44E2,1.32E2,4.7E1,8.7E1,8.7E1,3.26E2,9.35E2,1.36E2,1.358E3,2.98E2,5.41E2,1.54E2,2.83E2],"tree_param":{"num_deleted":"0","num_feature":"2","num_nodes":"29","size_leaf_vector":"1"}},{"base_weights":[-4.367318E-3,-3.4659455E0,6.807378E-1,-4.6787376E0,-1.9315995E0,1.4246626E0,-2.513565E0,-5.171582E-1,-4.1274548E0,-3.063793E-1,-3.5922167E0,1.8005447E0,-2.7236947E-1,-4.024589E0,-1.7366191E0,-3.6810485E-1,-4.317575E-1,-6.422282E-2,6.30585E-2,-2.9183832E-1,-4.22523E-1,2.1401992E-1,-5.675172E-3,-1.7264372E-1,8.8819325E-2,-3.273929E-1,-4.5022926E-1,-9.280813E-2,-4.4099924E-1],"categories":[],"categories_nodes":[],"categories_segments":[],"categories_sizes":[],"default_left":[0,0,0,0,0,0,0,0,0,0,0,0,0,0,0,0,0,0,0,0,0,0,0,0,0,0,0,0,0],"id":8,"left_children":[1,3,5,7,9,11,13,-1,15,17,19,21,23,25,27,-1,-1,-1,-1,-1,-1,-1,-1,-1,-1,-1,-1,-1,-1],"loss_changes":[1.1454549E4,1.475916E3,9.584909E3,9.955957E1,9.542991E2,2.0870093E3,8.8758594E2,0E0,2.354004E0,5.7047104E1,6.2314453E1,1.6895078E3,1.00393024E3,7.7776855E1,1.0874767E3,0E0,0E0,0E0,0E0,0E0,0E0,0E0,0E0,0E0,0E0,0E0,0E0,0E0,0E0],"parents":[2147483647,0,0,1,1,2,2,3,3,4,4,5,5,6,6,8,8,9,9,10,10,11,11,12,12,13,13,14,14],"right_children":[2,4,6,8,10,12,14,-1,16,18,20,22,24,26,28,-1,-1,-1,-1,-1,-1,-1,-1,-1,-1,-1,-1,-1,-1],"split_conditions":[6E0,3E0,2.1E1,5E0,5E0,7E0,4E0,-5.171582E-1,1E0,4E0,7E0,1.9E1,1.4E1,2.2E1,7E0,-3.6810485E-1,-4.317575E-1,-6.422282E-2,6.30585E-2,-2.9183832E-1,-4.22523E-1,2.1401992E-1,-5.675172E-3,-1.7264372E-1,8.8819325E-2,-3.273929E-1,-4.5022926E-1,-9.280813E-2,-4.4099924E-1],"split_indices":[1,1,1,0,0,0,0,0,1,0,0,1,1,1,0,0,0,0,0,0,0,0,0,0,0,0,0,0,0],"split_type":[0,0,0,0,0,0,0,0,0,0,0,0,0,0,0,0,0,0,0,0,0,0,0,0,0,0,0,0,0],"sum_hessian":[4.828E3,7.97E2,4.031E3,4.44E2,3.53E2,3.27E3,7.61E2,2.3E2,2.14E2,1.79E2,1.74E2,2.677E3,5.93E2,2.57E2,5.04E2,7E1,1.44E2,1.32E2,4.7E1,8.7E1,8.7E1,2.263E3,4.14E2,2.63E2,3.3E2,1.03E2,1.54E2,3.88E2,1.16E2],"tree_param":{"num_deleted":"0","num_feature":"2","num_nodes":"29","size_leaf_vector":"1"}},{"base_weights":[-4.5972574E-3,-3.121898E0,6.1236966E-1,-4.213824E0,-1.7404606E0,1.4196645E0,-1.7949777E0,-4.503287E0,-3.4452367E0,-2.7574763E-1,-3.2370772E0,1.7572378E0,-8.281374E-2,-9.7315985E-1,-2.8716264E0,-3.8624582E-1,-4.6672687E-1,-2.5633946E-1,-3.6172655E-1,-5.784879E-2,5.6883987E-2,-2.629861E-1,-3.8075086E-1,1.9262739E-1,-1.3662829E-2,-1.5544476E-1,1.2479881E-1,-1.9677888E-1,-3.8846448E-2,-4.3959457E-1,-2.3344493E-1],"categories":[],"categories_nodes":[],"categories_segments":[],"categories_sizes":[],"default_left":[0,0,0,0,0,0,0,0,0,0,0,0,0,0,0,0,0,0,0,0,0,0,0,0,0,0,0,0,0,0,0],"id":9,"left_children":[1,3,5,7,9,11,13,15,17,19,21,23,25,27,29,-1,-1,-1,-1,-1,-1,-1,-1,-1,-1,-1,-1,-1,-1,-1,-1],"loss_changes":[9.28939E3,1.1963906E3,7.838495E3,8.348779E1,7.751157E2,1.5318794E3,8.9351685E2,1.5599609E1,9.842163E0,4.635338E1,5.0602295E1,7.897075E2,1.0888812E3,3.3421124E2,3.4838525E2,0E0,0E0,0E0,0E0,0E0,0E0,0E0,0E0,0E0,0E0,0E0,0E0,0E0,0E0,0E0,0E0],"parents":[2147483647,0,0,1,1,2,2,3,3,4,4,5,5,6,6,7,7,8,8,9,9,10,10,11,11,12,12,13,13,14,14],"right_children":[2,4,6,8,10,12,14,16,18,20,22,24,26,28,30,-1,-1,-1,-1,-1,-1,-1,-1,-1,-1,-1,-1,-1,-1,-1,-1],"split_conditions":[6E0,3E0,2E1,7E0,5E0,7E0,2.2E1,1E0,1E0,4E0,7E0,1.9E1,1.4E1,4E0,3E0,-3.8624582E-1,-4.6672687E-1,-2.5633946E-1,-3.6172655E-1,-5.784879E-2,5.6883987E-2,-2.629861E-1,-3.8075086E-1,1.9262739E-1,-1.3662829E-2,-1.5544476E-1,1.2479881E-1,-1.9677888E-1,-3.8846448E-2,-4.3959457E-1,-2.3344493E-1],"split_indices":[1,1,1,0,0,0,1,1,1,0,0,1,1,0,0,0,0,0,0,0,0,0,0,0,0,0,0,0,0,0,0],"split_type":[0,0,0,0,0,0,0,0,0,0,0,0,0,0,0,0,0,0,0,0,0,0,0,0,0,0,0,0,0,0,0],"sum_hessian":[4.828E3,7.97E2,4.031E3,4.44E2,3.53E2,3.019E3,1.012E3,3.19E2,1.25E2,1.79E2,1.74E2,2.465E3,5.54E2,5.75E2,4.37E2,7E1,2.49E2,2.3E1,1.02E2,1.32E2,4.7E1,8.7E1,8.7E1,2.263E3,2.02E2,2.63E2,2.91E2,2.12E2,3.63E2,1.12E2,3.25E2],"tree_param":{"num_deleted":"0","num_feature":"2","num_nodes":"31","size_leaf_vector":"1"}},{"base_weights":[-4.7329087E-3,-2.8123596E0,5.509444E-1,-3.795747E0,-1.5682358E0,1.1594511E0,-2.0618858E0,-4.19997E0,-3.3437877E0,-2.4817812E-1,-2.917048E0,1.468326E0,-2.3503733E-1,-3.3177507E0,-1.4161929E0,-3.7948105E-1,-4.4455132E-1,-3.6400723E-1,-3.105618E-1,-5.2107394E-2,5.1314104E-2,-2.3698632E-1,-3.4310848E-1,1.8178146E-1,3.433673E-2,-3.4012878E-1,2.0130126E-2,-2.7547973E-1,-3.6740693E-1,-6.9021165E-2,-3.8178214E-1],"categories":[],"categories_nodes":[],"categories_segments":[],"categories_sizes":[],"default_left":[0,0,0,0,0,0,0,0,0,0,0,0,0,0,0,0,0,0,0,0,0,0,0,0,0,0,0,0,0,0,0],"id":10,"left_children":[1,3,5,7,9,11,13,15,17,19,21,23,25,27,29,-1,-1,-1,-1,-1,-1,-1,-1,-1,-1,-1,-1,-1,-1,-1,-1],"loss_changes":[7.535438E3,9.7036523E2,6.4129688E3,6.725391E1,6.295766E2,1.4092373E3,6.132097E2,6.111084E0,3.8671875E0,3.7664326E1,4.109143E1,1.0522598E3,8.2132965E2,4.1631104E1,8.778512E2,0E0,0E0,0E0,0E0,0E0,0E0,0E0,0E0,0E0,0E0,0E0,0E0,0E0,0E0,0E0,0E0],"parents":[2147483647,0,0,1,1,2,2,3,3,4,4,5,5,6,6,7,7,8,8,9,9,10,10,11,11,12,12,13,13,14,14],"right_children":[2,4,6,8,10,12,14,16,18,20,22,24,26,28,30,-1,-1,-1,-1,-1,-1,-1,-1,-1,-1,-1,-1,-1,-1,-1,-1],"split_conditions":[6E0,3E0,2.1E1,5E0,5E0,7E0,4E0,2E0,7E0,4E0,7E0,1.8E1,9E0,2.2E1,7E0,-3.7948105E-1,-4.4455132E-1,-3.6400723E-1,-3.105618E-1,-5.2107394E-2,5.1314104E-2,-2.3698632E-1,-3.4310848E-1,1.8178146E-1,3.433673E-2,-3.4012878E-1,2.0130126E-2,-2.7547973E-1,-3.6740693E-1,-6.9021165E-2,-3.8178214E-1],"split_indices":[1,1,1,0,0,0,0,0,0,0,0,1,1,1,0,0,0,0,0,0,0,0,0,0,0,0,0,0,0,0,0],"split_type":[0,0,0,0,0,0,0,0,0,0,0,0,0,0,0,0,0,0,0,0,0,0,0,0,0,0,0,0,0,0,0],"sum_hessian":[4.828E3,7.97E2,4.031E3,4.44E2,3.53E2,3.27E3,7.61E2,2.3E2,2.14E2,1.79E2,1.74E2,2.677E3,5.93E2,2.57E2,5.04E2,9.3E1,1.37E2,8.9E1,1.25E2,1.32E2,4.7E1,8.7E1,8.7E1,2.042E3,6.35E2,7.1E1,5.22E2,1.03E2,1.54E2,3.88E2,1.16E2],"tree_param":{"num_deleted":"0","num_feature":"2","num_nodes":"31","size_leaf_vector":"1"}},{"base_weights":[-4.9383943E-3,-2.5337296E0,4.9555272E-1,-3.4195402E0,-1.413053E0,1.2728766E0,-1.1824427E0,-3.653774E0,-2.797521E0,-2.2336441E-1,-2.6286583E0,2.1280138E0,5.5016345E-1,-5.658551E-1,-2.3622398E0,-3.0966803E-1,-3.7973735E-1,-2.0201145E-1,-2.951504E-1,-4.6935786E-2,4.6289586E-2,-2.13557E-1,-3.0918753E-1,1.3260339E-1,2.4059193E-1,-2.958385E-1,9.034534E-2,-2.680436E-1,-2.36853E-2,-1.9939621E-1,-4.2377898E-1],"categories":[],"categories_nodes":[],"categories_segments":[],"categories_sizes":[],"default_left":[0,0,0,0,0,0,0,0,0,0,0,0,0,0,0,0,0,0,0,0,0,0,0,0,0,0,0,0,0,0,0],"id":11,"left_children":[1,3,5,7,9,11,13,15,17,19,21,23,25,27,29,-1,-1,-1,-1,-1,-1,-1,-1,-1,-1,-1,-1,-1,-1,-1,-1],"loss_changes":[6.113019E3,7.8734863E2,5.260628E3,5.461377E1,5.113647E2,1.7020898E3,9.276146E2,1.3840332E1,9.12085E0,3.0604057E1,3.3368286E1,2.7807715E2,1.8557773E3,5.837545E2,2.940869E2,0E0,0E0,0E0,0E0,0E0,0E0,0E0,0E0,0E0,0E0,0E0,0E0,0E0,0E0,0E0,0E0],"parents":[2147483647,0,0,1,1,2,2,3,3,4,4,5,5,6,6,7,7,8,8,9,9,10,10,11,11,12,12,13,13,14,14],"right_children":[2,4,6,8,10,12,14,16,18,20,22,24,26,28,30,-1,-1,-1,-1,-1,-1,-1,-1,-1,-1,-1,-1,-1,-1,-1,-1],"split_conditions":[6E0,3E0,1.9E1,7E0,5E0,5E0,2.2E1,1E0,1E0,4E0,7E0,2E0,8E0,2E0,7E0,-3.0966803E-1,-3.7973735E-1,-2.0201145E-1,-2.951504E-1,-4.6935786E-2,4.6289586E-2,-2.13557E-1,-3.0918753E-1,1.3260339E-1,2.4059193E-1,-2.958385E-1,9.034534E-2,-2.680436E-1,-2.36853E-2,-1.9939621E-1,-4.2377898E-1],"split_indices":[1,1,1,0,0,0,1,1,1,0,0,0,1,0,0,0,0,0,0,0,0,0,0,0,0,0,0,0,0,0,0],"split_type":[0,0,0,0,0,0,0,0,0,0,0,0,0,0,0,0,0,0,0,0,0,0,0,0,0,0,0,0,0,0,0],"sum_hessian":[4.828E3,7.97E2,4.031E3,4.44E2,3.53E2,2.755E3,1.276E3,3.19E2,1.25E2,1.79E2,1.74E2,1.261E3,1.494E3,8.39E2,4.37E2,7E1,2.49E2,2.3E1,1.02E2,1.32E2,4.7E1,8.7E1,8.7E1,3.26E2,9.35E2,1.36E2,1.358E3,1.12E2,7.27E2,3.67E2,7E1],"tree_param":{"num_deleted":"0","num_feature":"2","num_nodes":"31","size_leaf_vector":"1"}},{"base_weights":[-4.953169E-3,-2.2824993E0,4.4581237E-1,-3.0802524E0,-1.273226E0,9.45013E-1,-1.6976666E0,-3.4124234E0,-2.7090352E0,-2.0103134E-1,-2.3687794E0,1.2098047E0,-2.503695E-1,-2.8173718E0,-1.1222576E0,-3.0436692E-1,-3.638876E-1,-2.3674059E-1,-2.857633E-1,-1.2159946E-1,-4.459726E-3,-1.9244397E-1,-2.786201E-1,1.4949058E-1,2.9208226E-2,-2.8867903E-1,1.1305819E-2,-2.677128E-1,-4.01736E-1,-5.0153155E-2,-3.1764472E-1],"categories":[],"categories_nodes":[],"categories_segments":[],"categories_sizes":[],"default_left":[0,0,0,0,0,0,0,0,0,0,0,0,0,0,0,0,0,0,0,0,0,0,0,0,0,0,0,0,0,0,0],"id":12,"left_children":[1,3,5,7,9,11,13,15,17,19,21,23,25,27,29,-1,-1,-1,-1,-1,-1,-1,-1,-1,-1,-1,-1,-1,-1,-1,-1],"loss_changes":[4.9586587E3,6.385884E2,4.315949E3,4.562744E1,4.1534863E2,1.0356638E3,4.877859E2,8.214355E0,4.149414E0,2.8525242E1,2.7096619E1,7.0024536E2,5.694665E2,3.266394E1,6.423268E2,0E0,0E0,0E0,0E0,0E0,0E0,0E0,0E0,0E0,0E0,0E0,0E0,0E0,0E0,0E0,0E0],"parents":[2147483647,0,0,1,1,2,2,3,3,4,4,5,5,6,6,7,7,8,8,9,9,10,10,11,11,12,12,13,13,14,14],"right_children":[2,4,6,8,10,12,14,16,18,20,22,24,26,28,30,-1,-1,-1,-1,-1,-1,-1,-1,-1,-1,-1,-1,-1,-1,-1,-1],"split_conditions":[6E0,3E0,2.1E1,5E0,5E0,7E0,4E0,2E0,1E0,4E0,7E0,1.8E1,9E0,2.3E1,7E0,-3.0436692E-1,-3.638876E-1,-2.3674059E-1,-2.857633E-1,-1.2159946E-1,-4.459726E-3,-1.9244397E-1,-2.786201E-1,1.4949058E-1,2.9208226E-2,-2.8867903E-1,1.1305819E-2,-2.677128E-1,-4.01736E-1,-5.0153155E-2,-3.1764472E-1],"split_indices":[1,1,1,0,0,0,0,0,1,1,0,1,1,1,0,0,0,0,0,0,0,0,0,0,0,0,0,0,0,0,0],"split_type":[0,0,0,0,0,0,0,0,0,0,0,0,0,0,0,0,0,0,0,0,0,0,0,0,0,0,0,0,0,0,0],"sum_hessian":[4.828E3,7.97E2,4.031E3,4.44E2,3.53E2,3.27E3,7.61E2,2.3E2,2.14E2,1.79E2,1.74E2,2.677E3,5.93E2,2.57E2,5.04E2,9.3E1,1.37E2,7E1,1.44E2,2.3E1,1.56E2,8.7E1,8.7E1,2.042E3,6.35E2,7.1E1,5.22E2,2.33E2,2.4E1,3.88E2,1.16E2],"tree_param":{"num_deleted":"0","num_feature":"2","num_nodes":"31","size_leaf_vector":"1"}},{"base_weights":[-5.0633005E-3,-2.0564897E0,4.0094945E-1,-2.774903E0,-1.1475904E0,9.439741E-1,-1.2183352E0,-2.9740272E0,-2.247168E0,-1.8162887E-1,-2.1345932E0,1.5394683E0,4.3589258E-1,-9.497666E-1,-2.9881887E0,-2.5167793E-1,-3.0919895E-1,-1.5996435E-1,-2.3762305E-1,-3.9809164E-2,4.2193722E-2,-1.7341827E-1,-2.510747E-1,1.9108252E-1,-7.422087E-3,-2.0621978E-1,7.964611E-2,-1.9044594E-1,-3.404728E-2,-2.3586416E-1,-5.613487E-1],"categories":[],"categories_nodes":[],"categories_segments":[],"categories_sizes":[],"default_left":[0,0,0,0,0,0,0,0,0,0,0,0,0,0,0,0,0,0,0,0,0,0,0,0,0,0,0,0,0,0,0],"id":13,"left_children":[1,3,5,7,9,11,13,15,17,19,21,23,25,27,29,-1,-1,-1,-1,-1,-1,-1,-1,-1,-1,-1,-1,-1,-1,-1,-1],"loss_changes":[4.0229243E3,5.178821E2,3.5465334E3,4.0079346E1,3.3711832E2,9.1305884E2,4.7866797E2,9.4782715E0,6.728821E0,2.3684893E1,2.2003662E1,8.331062E2,1.4707374E3,5.1181903E2,2.0657532E2,0E0,0E0,0E0,0E0,0E0,0E0,0E0,0E0,0E0,0E0,0E0,0E0,0E0,0E0,0E0,0E0],"parents":[2147483647,0,0,1,1,2,2,3,3,4,4,5,5,6,6,7,7,8,8,9,9,10,10,11,11,12,12,13,13,14,14],"right_children":[2,4,6,8,10,12,14,16,18,20,22,24,26,28,30,-1,-1,-1,-1,-1,-1,-1,-1,-1,-1,-1,-1,-1,-1,-1,-1],"split_conditions":[6E0,3E0,2E1,7E0,5E0,5E0,2.3E1,1E0,1E0,4E0,7E0,1.8E1,9E0,4E0,7E0,-2.5167793E-1,-3.0919895E-1,-1.5996435E-1,-2.3762305E-1,-3.9809164E-2,4.2193722E-2,-1.7341827E-1,-2.510747E-1,1.9108252E-1,-7.422087E-3,-2.0621978E-1,7.964611E-2,-1.9044594E-1,-3.404728E-2,-2.3586416E-1,-5.613487E-1],"split_indices":[1,1,1,0,0,0,1,1,1,0,0,1,1,0,0,0,0,0,0,0,0,0,0,0,0,0,0,0,0,0,0],"split_type":[0,0,0,0,0,0,0,0,0,0,0,0,0,0,0,0,0,0,0,0,0,0,0,0,0,0,0,0,0,0,0],"sum_hessian":[4.828E3,7.97E2,4.031E3,4.44E2,3.53E2,3.019E3,1.012E3,3.19E2,1.25E2,1.79E2,1.74E2,1.389E3,1.63E3,8.8E2,1.32E2,7E1,2.49E2,2.3E1,1.02E2,1.32E2,4.7E1,8.7E1,8.7E1,1.129E3,2.6E2,2.05E2,1.425E3,3.42E2,5.38E2,1.08E2,2.4E1],"tree_param":{"num_deleted":"0","num_feature":"2","num_nodes":"31","size_leaf_vector":"1"}},{"base_weights":[-5.042725E-3,-1.8525708E0,3.6061513E-1,-2.4995666E0,-1.0340238E0,7.711694E-1,-1.4022243E0,-2.6783772E0,-2.0256066E0,-1.634526E-1,-1.9235595E0,1.0004182E0,-2.6367825E-1,-2.344297E0,-9.181512E-1,-2.268646E-1,-2.7840275E-1,-1.4463441E-1,-2.1409142E-1,-1.0613116E-1,-2.5159167E-3,-1.5627353E-1,-2.2625254E-1,1.1717848E-1,6.31312E-3,-1.2726687E-1,5.4187205E-2,-1.8990241E-1,-2.627936E-1,-3.7396815E-2,-2.7195963E-1],"categories":[],"categories_nodes":[],"categories_segments":[],"categories_sizes":[],"default_left":[0,0,0,0,0,0,0,0,0,0,0,0,0,0,0,0,0,0,0,0,0,0,0,0,0,0,0,0,0,0,0],"id":14,"left_children":[1,3,5,7,9,11,13,15,17,19,21,23,25,27,29,-1,-1,-1,-1,-1,-1,-1,-1,-1,-1,-1,-1,-1,-1,-1,-1],"loss_changes":[3.2629626E3,4.200332E2,2.9192063E3,3.2288086E1,2.738247E2,7.7626794E2,3.45344E2,7.536133E0,5.319458E0,2.2323536E1,1.7867981E1,4.300652E2,4.834884E2,2.7593994E1,4.940425E2,0E0,0E0,0E0,0E0,0E0,0E0,0E0,0E0,0E0,0E0,0E0,0E0,0E0,0E0,0E0,0E0],"parents":[2147483647,0,0,1,1,2,2,3,3,4,4,5,5,6,6,7,7,8,8,9,9,10,10,11,11,12,12,13,13,14,14],"right_children":[2,4,6,8,10,12,14,16,18,20,22,24,26,28,30,-1,-1,-1,-1,-1,-1,-1,-1,-1,-1,-1,-1,-1,-1,-1,-1],"split_conditions":[6E0,3E0,2.1E1,7E0,5E0,7E0,4E0,1E0,1E0,4E0,7E0,1.9E1,1.4E1,2.2E1,7E0,-2.268646E-1,-2.7840275E-1,-1.4463441E-1,-2.1409142E-1,-1.0613116E-1,-2.5159167E-3,-1.5627353E-1,-2.2625254E-1,1.1717848E-1,6.31312E-3,-1.2726687E-1,5.4187205E-2,-1.8990241E-1,-2.627936E-1,-3.7396815E-2,-2.7195963E-1],"split_indices":[1,1,1,0,0,0,0,1,1,1,0,1,1,1,0,0,0,0,0,0,0,0,0,0,0,0,0,0,0,0,0],"split_type":[0,0,0,0,0,0,0,0,0,0,0,0,0,0,0,0,0,0,0,0,0,0,0,0,0,0,0,0,0,0,0],"sum_hessian":[4.828E3,7.97E2,4.031E3,4.44E2,3.53E2,3.27E3,7.61E2,3.19E2,1.25E2,1.79E2,1.74E2,2.677E3,5.93E2,2.57E2,5.04E2,7E1,2.49E2,2.3E1,1.02E2,2.3E1,1.56E2,8.7E1,8.7E1,2.263E3,4.14E2,2.63E2,3.3E2,1.03E2,1.54E2,3.88E2,1.16E2],"tree_param":{"num_deleted":"0","num_feature":"2","num_nodes":"31","size_leaf_vector":"1"}},{"base_weights":[-4.966333E-3,-1.669012E0,3.2437724E-1,-2.2515514E0,-9.320088E-1,8.4984773E-1,-8.099383E-1,-2.4121182E0,-1.825893E0,-1.4771101E-1,-1.7333894E0,1.4914651E0,3.0765978E-1,-2.3811765E0,-5.466081E-1,-2.0449765E-1,-2.5067383E-1,-1.3077363E-1,-1.9289015E-1,-3.3816636E-2,3.830863E-2,-1.4082374E-1,-2.038844E-1,7.62833E-2,1.7444257E-1,-2.4755847E-1,5.8801066E-2,-3.1824553E-1,-2.1199273E-1,2.0641021E-2,-1.0683371E-1],"categories":[],"categories_nodes":[],"categories_segments":[],"categories_sizes":[],"default_left":[0,0,0,0,0,0,0,0,0,0,0,0,0,0,0,0,0,0,0,0,0,0,0,0,0,0,0,0,0,0,0],"id":15,"left_children":[1,3,5,7,9,11,13,15,17,19,21,23,25,27,29,-1,-1,-1,-1,-1,-1,-1,-1,-1,-1,-1,-1,-1,-1,-1,-1],"loss_changes":[2.6470398E3,3.4050952E2,2.403959E3,2.601001E1,2.2224036E2,9.582908E2,5.2706287E2,5.9902344E0,4.2026978E0,1.832632E1,1.4509644E1,2.312749E2,1.1679818E3,3.1561401E1,4.3041473E2,0E0,0E0,0E0,0E0,0E0,0E0,0E0,0E0,0E0,0E0,0E0,0E0,0E0,0E0,0E0,0E0],"parents":[2147483647,0,0,1,1,2,2,3,3,4,4,5,5,6,6,7,7,8,8,9,9,10,10,11,11,12,12,13,13,14,14],"right_children":[2,4,6,8,10,12,14,16,18,20,22,24,26,28,30,-1,-1,-1,-1,-1,-1,-1,-1,-1,-1,-1,-1,-1,-1,-1,-1],"split_conditions":[6E0,3E0,1.9E1,7E0,5E0,5E0,2E0,1E0,1E0,4E0,7E0,2E0,8E0,2E1,2.1E1,-2.0449765E-1,-2.5067383E-1,-1.3077363E-1,-1.9289015E-1,-3.3816636E-2,3.830863E-2,-1.4082374E-1,-2.038844E-1,7.62833E-2,1.7444257E-1,-2.4755847E-1,5.8801066E-2,-3.1824553E-1,-2.1199273E-1,2.0641021E-2,-1.0683371E-1],"split_indices":[1,1,1,0,0,0,0,1,1,0,0,0,1,1,1,0,0,0,0,0,0,0,0,0,0,0,0,0,0,0,0],"split_type":[0,0,0,0,0,0,0,0,0,0,0,0,0,0,0,0,0,0,0,0,0,0,0,0,0,0,0,0,0,0,0],"sum_hessian":[4.828E3,7.97E2,4.031E3,4.44E2,3.53E2,2.755E3,1.276E3,3.19E2,1.25E2,1.79E2,1.74E2,1.261E3,1.494E3,1.82E2,1.094E3,7E1,2.49E2,2.3E1,1.02E2,1.32E2,4.7E1,8.7E1,8.7E1,3.26E2,9.35E2,1.36E2,1.358E3,4.2E1,1.4E2,4.48E2,6.46E2],"tree_param":{"num_deleted":"0","num_feature":"2","num_nodes":"31","size_leaf_vector":"1"}},{"base_weights":[-4.8162974E-3,-1.5035131E0,2.91802E-1,-2.0281465E0,-8.397692E-1,8.3923584E-1,-5.9645504E-1,-2.2548835E0,-1.7751029E0,-1.329153E-1,-1.5620202E0,4.5908725E-1,1.6713783E0,-1.4592848E0,-1.2946351E-1,-1.9131826E-1,-2.4712966E-1,-1.5408099E-1,-1.8775836E-1,-9.271949E-2,-1.0650185E-3,-1.44098E-1,-2.3383014E-1,6.9834605E-2,-6.1828174E-2,2.3299158E-1,2.606907E-2,-2.1257578E-1,-1.0353326E-1,4.460489E-2,-1.7841177E-1],"categories":[],"categories_nodes":[],"categories_segments":[],"categories_sizes":[],"default_left":[0,0,0,0,0,0,0,0,0,0,0,0,0,0,0,0,0,0,0,0,0,0,0,0,0,0,0,0,0,0,0],"id":16,"left_children":[1,3,5,7,9,11,13,15,17,19,21,23,25,27,29,-1,-1,-1,-1,-1,-1,-1,-1,-1,-1,-1,-1,-1,-1,-1,-1],"loss_changes":[2.1471265E3,2.761781E2,1.9611089E3,2.152893E1,1.8051859E2,7.884955E2,6.195238E2,1.2354126E1,2.269165E0,1.7470407E1,1.3073761E1,4.4224945E2,7.258635E2,1.5037756E2,9.521175E2,0E0,0E0,0E0,0E0,0E0,0E0,0E0,0E0,0E0,0E0,0E0,0E0,0E0,0E0,0E0,0E0],"parents":[2147483647,0,0,1,1,2,2,3,3,4,4,5,5,6,6,7,7,8,8,9,9,10,10,11,11,12,12,13,13,14,14],"right_children":[2,4,6,8,10,12,14,16,18,20,22,24,26,28,30,-1,-1,-1,-1,-1,-1,-1,-1,-1,-1,-1,-1,-1,-1,-1,-1],"split_conditions":[6E0,3E0,1.8E1,5E0,5E0,1.5E1,4E0,2E0,1E0,4E0,5E0,7E0,1.7E1,2E0,7E0,-1.9131826E-1,-2.4712966E-1,-1.5408099E-1,-1.8775836E-1,-9.271949E-2,-1.0650185E-3,-1.44098E-1,-2.3383014E-1,6.9834605E-2,-6.1828174E-2,2.3299158E-1,2.606907E-2,-2.1257578E-1,-1.0353326E-1,4.460489E-2,-1.7841177E-1],"split_indices":[1,1,1,0,0,1,0,0,1,1,1,0,1,0,0,0,0,0,0,0,0,0,0,0,0,0,0,0,0,0,0],"split_type":[0,0,0,0,0,0,0,0,0,0,0,0,0,0,0,0,0,0,0,0,0,0,0,0,0,0,0,0,0,0,0],"sum_hessian":[4.828E3,7.97E2,4.031E3,4.44E2,3.53E2,2.494E3,1.537E3,2.3E2,2.14E2,1.79E2,1.74E2,1.713E3,7.81E2,5.39E2,9.98E2,9.3E1,1.37E2,7E1,1.44E2,2.3E1,1.56E2,1.53E2,2.1E1,1.402E3,3.11E2,5.32E2,2.49E2,2.08E2,3.31E2,7.41E2,2.57E2],"tree_param":{"num_deleted":"0","num_feature":"2","num_nodes":"31","size_leaf_vector":"1"}},{"base_weights":[-4.6317196E-3,-1.3547307E0,2.6257652E-1,-1.8270853E0,-7.571248E-1,5.7633317E-1,-1.0846158E0,-1.9636507E0,-1.4657518E0,-1.20144665E-1,-1.4079778E0,7.5423163E-1,-2.2667776E-1,-8.035427E-1,-2.4078598E0,-1.6613057E-1,-2.0416622E-1,-1.0347509E-1,-1.5519486E-1,4.552273E-2,-3.0964166E-2,-1.1051402E-1,-1.6948158E-1,9.448875E-2,3.3155274E-2,-1.08484484E-1,4.584666E-2,-1.6985731E-1,-2.739693E-2,-1.8968211E-1,-4.5396742E-1],"categories":[],"categories_nodes":[],"categories_segments":[],"categories_sizes":[],"default_left":[0,0,0,0,0,0,0,0,0,0,0,0,0,0,0,0,0,0,0,0,0,0,0,0,0,0,0,0,0,0,0],"id":17,"left_children":[1,3,5,7,9,11,13,15,17,19,21,23,25,27,29,-1,-1,-1,-1,-1,-1,-1,-1,-1,-1,-1,-1,-1,-1,-1,-1],"loss_changes":[1.742454E3,2.2387756E2,1.7049133E3,1.9080688E1,1.4659233E2,4.6744775E2,2.814745E2,4.1557617E0,3.0751648E0,1.9766584E1,1.332843E1,2.1549658E2,3.4975055E2,2.981447E2,1.3628455E2,0E0,0E0,0E0,0E0,0E0,0E0,0E0,0E0,0E0,0E0,0E0,0E0,0E0,0E0,0E0,0E0],"parents":[2147483647,0,0,1,1,2,2,3,3,4,4,5,5,6,6,7,7,8,8,9,9,10,10,11,11,12,12,13,13,14,14],"right_children":[2,4,6,8,10,12,14,16,18,20,22,24,26,28,30,-1,-1,-1,-1,-1,-1,-1,-1,-1,-1,-1,-1,-1,-1,-1,-1],"split_conditions":[6E0,3E0,2.1E1,7E0,5E0,7E0,2.3E1,1E0,1E0,2E0,7E0,1.7E1,1.4E1,4E0,7E0,-1.6613057E-1,-2.0416622E-1,-1.0347509E-1,-1.5519486E-1,4.552273E-2,-3.0964166E-2,-1.1051402E-1,-1.6948158E-1,9.448875E-2,3.3155274E-2,-1.08484484E-1,4.584666E-2,-1.6985731E-1,-2.739693E-2,-1.8968211E-1,-4.5396742E-1],"split_indices":[1,1,1,0,0,0,1,1,1,0,0,1,1,0,0,0,0,0,0,0,0,0,0,0,0,0,0,0,0,0,0],"split_type":[0,0,0,0,0,0,0,0,0,0,0,0,0,0,0,0,0,0,0,0,0,0,0,0,0,0,0,0,0,0,0],"sum_hessian":[4.828E3,7.97E2,4.031E3,4.44E2,3.53E2,3.27E3,7.61E2,3.19E2,1.25E2,1.79E2,1.74E2,2.677E3,5.93E2,6.29E2,1.32E2,7E1,2.49E2,2.3E1,1.02E2,4.4E1,1.35E2,8.7E1,8.7E1,1.844E3,8.33E2,2.63E2,3.3E2,2.33E2,3.96E2,1.08E2,2.4E1],"tree_param":{"num_deleted":"0","num_feature":"2","num_nodes":"31","size_leaf_vector":"1"}},{"base_weights":[-4.514282E-3,-1.2203785E0,2.3612662E-1,-1.6457902E0,-6.821621E-1,5.187199E-1,-9.7725767E-1,-1.7684429E0,-1.3212296E0,-1.0804949E-1,-1.2687799E0,9.0058035E-1,1.875364E-1,-7.235014E-1,-2.1719134E0,-1.5219054E-1,-1.8627428E-1,-9.355872E-2,-1.3982604E-1,-8.819649E-2,1.094427E-3,-1.1547083E-1,-2.0096092E-1,1.2641759E-1,-1.552236E-2,-1.7937873E-1,4.5107976E-2,-1.5294416E-1,-2.4664117E-2,-1.7088793E-1,-4.1038653E-1],"categories":[],"categories_nodes":[],"categories_segments":[],"categories_sizes":[],"default_left":[0,0,0,0,0,0,0,0,0,0,0,0,0,0,0,0,0,0,0,0,0,0,0,0,0,0,0,0,0,0,0],"id":18,"left_children":[1,3,5,7,9,11,13,15,17,19,21,23,25,27,29,-1,-1,-1,-1,-1,-1,-1,-1,-1,-1,-1,-1,-1,-1,-1,-1],"loss_changes":[1.4131892E3,1.8159021E2,1.3830566E3,1.5378174E1,1.1908467E2,4.135011E2,2.2942987E2,4.6046143E0,2.434845E0,1.6586052E1,1.2468323E1,5.833185E2,9.161639E2,2.4174496E2,1.119635E2,0E0,0E0,0E0,0E0,0E0,0E0,0E0,0E0,0E0,0E0,0E0,0E0,0E0,0E0,0E0,0E0],"parents":[2147483647,0,0,1,1,2,2,3,3,4,4,5,5,6,6,7,7,8,8,9,9,10,10,11,11,12,12,13,13,14,14],"right_children":[2,4,6,8,10,12,14,16,18,20,22,24,26,28,30,-1,-1,-1,-1,-1,-1,-1,-1,-1,-1,-1,-1,-1,-1,-1,-1],"split_conditions":[6E0,3E0,2.1E1,7E0,5E0,5E0,2.3E1,2E0,1E0,4E0,5E0,1.8E1,9E0,4E0,7E0,-1.5219054E-1,-1.8627428E-1,-9.355872E-2,-1.3982604E-1,-8.819649E-2,1.094427E-3,-1.1547083E-1,-2.0096092E-1,1.2641759E-1,-1.552236E-2,-1.7937873E-1,4.5107976E-2,-1.5294416E-1,-2.4664117E-2,-1.7088793E-1,-4.1038653E-1],"split_indices":[1,1,1,0,0,0,1,0,1,1,1,1,1,0,0,0,0,0,0,0,0,0,0,0,0,0,0,0,0,0,0],"split_type":[0,0,0,0,0,0,0,0,0,0,0,0,0,0,0,0,0,0,0,0,0,0,0,0,0,0,0,0,0,0,0],"sum_hessian":[4.828E3,7.97E2,4.031E3,4.44E2,3.53E2,3.27E3,7.61E2,3.19E2,1.25E2,1.79E2,1.74E2,1.518E3,1.752E3,6.29E2,1.32E2,9.3E1,2.26E2,2.3E1,1.02E2,2.3E1,1.56E2,1.53E2,2.1E1,1.129E3,3.89E2,2.05E2,1.547E3,2.33E2,3.96E2,1.08E2,2.4E1],"tree_param":{"num_deleted":"0","num_feature":"2","num_nodes":"31","size_leaf_vector":"1"}},{"base_weights":[-4.4269315E-3,-1.099563E0,2.1231985E-1,-1.4824963E0,-6.1508596E-1,5.195625E-1,-7.038549E-1,-1.6600521E0,-1.2848318E0,-9.772875E-2,-1.14371E0,9.0651363E-1,1.8946949E-1,-4.5254576E-1,-2.0815437E0,-1.3713339E-1,-1.8446858E-1,-1.0917894E-1,-1.3704951E-1,4.552837E-2,-2.7999222E-2,-8.613222E-2,-1.4131013E-1,5.7136207E-3,1.21230006E-1,-2.0927583E-1,3.984834E-2,-1.1871054E-1,9.630781E-3,-1.7573746E-1,-3.709894E-1],"categories":[],"categories_nodes":[],"categories_segments":[],"categories_sizes":[],"default_left":[0,0,0,0,0,0,0,0,0,0,0,0,0,0,0,0,0,0,0,0,0,0,0,0,0,0,0,0,0,0,0],"id":19,"left_children":[1,3,5,7,9,11,13,15,17,19,21,23,25,27,29,-1,-1,-1,-1,-1,-1,-1,-1,-1,-1,-1,-1,-1,-1,-1,-1],"loss_changes":[1.1464799E3,1.4713501E2,1.1353251E3,1.3485046E1,9.670279E1,3.8557245E2,3.497847E2,9.784241E0,2.059143E0,1.8270388E1,1.2095596E1,3.6095276E2,7.78849E2,3.460305E2,7.582666E1,0E0,0E0,0E0,0E0,0E0,0E0,0E0,0E0,0E0,0E0,0E0,0E0,0E0,0E0,0E0,0E0],"parents":[2147483647,0,0,1,1,2,2,3,3,4,4,5,5,6,6,7,7,8,8,9,9,10,10,11,11,12,12,13,13,14,14],"right_children":[2,4,6,8,10,12,14,16,18,20,22,24,26,28,30,-1,-1,-1,-1,-1,-1,-1,-1,-1,-1,-1,-1,-1,-1,-1,-1],"split_conditions":[6E0,3E0,2E1,5E0,5E0,5E0,7E0,2E0,1E0,2E0,7E0,2E0,8E0,4E0,2.3E1,-1.3713339E-1,-1.8446858E-1,-1.0917894E-1,-1.3704951E-1,4.552837E-2,-2.7999222E-2,-8.613222E-2,-1.4131013E-1,5.7136207E-3,1.21230006E-1,-2.0927583E-1,3.984834E-2,-1.1871054E-1,9.630781E-3,-1.7573746E-1,-3.709894E-1],"split_indices":[1,1,1,0,0,0,0,0,1,0,0,0,1,0,1,0,0,0,0,0,0,0,0,0,0,0,0,0,0,0,0],"split_type":[0,0,0,0,0,0,0,0,0,0,0,0,0,0,0,0,0,0,0,0,0,0,0,0,0,0,0,0,0,0,0],"sum_hessian":[4.828E3,7.97E2,4.031E3,4.44E2,3.53E2,3.019E3,1.012E3,2.3E2,2.14E2,1.79E2,1.74E2,1.389E3,1.63E3,8.57E2,1.55E2,9.3E1,1.37E2,7E1,1.44E2,4.4E1,1.35E2,8.7E1,8.7E1,3.68E2,1.021E3,1.36E2,1.494E3,3.66E2,4.91E2,1.31E2,2.4E1],"tree_param":{"num_deleted":"0","num_feature":"2","num_nodes":"31","size_leaf_vector":"1"}},{"base_weights":[-4.2898403E-3,-9.905814E-1,1.9091475E-1,-1.3355227E0,-5.541705E-1,6.3530093E-1,-3.6772108E-1,-1.4398029E0,-1.0600846E0,-8.785872E-2,-1.0306387E0,2.52945E-1,1.8636737E0,-1.5535924E0,-1.6841562E-1,-1.1818337E-1,-1.507307E-1,-7.412968E-2,-1.1240732E-1,-2.6445141E-2,4.0328063E-2,-9.232424E-2,-1.7355657E-1,4.126293E-2,-4.6593312E-2,2.9797503E-1,1.5529041E-1,-1.8291482E-1,-1.3139214E-1,1.46552045E-2,-1.4144902E-1],"categories":[],"categories_nodes":[],"categories_segments":[],"categories_sizes":[],"default_left":[0,0,0,0,0,0,0,0,0,0,0,0,0,0,0,0,0,0,0,0,0,0,0,0,0,0,0,0,0,0,0],"id":20,"left_children":[1,3,5,7,9,11,13,15,17,19,21,23,25,27,29,-1,-1,-1,-1,-1,-1,-1,-1,-1,-1,-1,-1,-1,-1,-1,-1],"loss_changes":[9.2991E2,1.19387695E2,1.0011777E3,1.125531E1,7.856213E1,1.0544199E3,4.2209686E2,3.7911377E0,1.7369995E0,1.571834E1,1.1646301E1,1.9694836E2,1.8023999E2,1.4569641E1,6.0108374E2,0E0,0E0,0E0,0E0,0E0,0E0,0E0,0E0,0E0,0E0,0E0,0E0,0E0,0E0,0E0,0E0],"parents":[2147483647,0,0,1,1,2,2,3,3,4,4,5,5,6,6,7,7,8,8,9,9,10,10,11,11,12,12,13,13,14,14],"right_children":[2,4,6,8,10,12,14,16,18,20,22,24,26,28,30,-1,-1,-1,-1,-1,-1,-1,-1,-1,-1,-1,-1,-1,-1,-1,-1],"split_conditions":[6E0,3E0,1.7E1,7E0,5E0,1.5E1,2E0,1E0,1E0,4E0,5E0,7E0,3E0,2E1,7E0,-1.1818337E-1,-1.507307E-1,-7.412968E-2,-1.1240732E-1,-2.6445141E-2,4.0328063E-2,-9.232424E-2,-1.7355657E-1,4.126293E-2,-4.6593312E-2,2.9797503E-1,1.5529041E-1,-1.8291482E-1,-1.3139214E-1,1.46552045E-2,-1.4144902E-1],"split_indices":[1,1,1,0,0,1,0,1,1,0,1,0,0,1,0,0,0,0,0,0,0,0,0,0,0,0,0,0,0,0,0],"split_type":[0,0,0,0,0,0,0,0,0,0,0,0,0,0,0,0,0,0,0,0,0,0,0,0,0,0,0,0,0,0,0],"sum_hessian":[4.828E3,7.97E2,4.031E3,4.44E2,3.53E2,2.245E3,1.786E3,3.19E2,1.25E2,1.79E2,1.74E2,1.713E3,5.32E2,2.56E2,1.53E3,7E1,2.49E2,2.3E1,1.02E2,1.32E2,4.7E1,1.53E2,2.1E1,1.402E3,3.11E2,1.14E2,4.18E2,1.16E2,1.4E2,1.222E3,3.08E2],"tree_param":{"num_deleted":"0","num_feature":"2","num_nodes":"31","size_leaf_vector":"1"}},{"base_weights":[-4.0061777E-3,-8.924098E-1,1.718247E-1,-1.202994E0,-4.9946517E-1,3.9381385E-1,-7.813228E-1,-1.3486017E0,-1.0409551E0,-7.899551E-2,-9.290942E-1,6.913736E-1,1.3574935E-1,-5.572533E-1,-1.8368298E0,-1.0865324E-1,-1.5173402E-1,-8.819004E-2,-1.11165814E-1,4.366247E-2,-2.490243E-2,-6.655087E-2,-1.1821218E-1,9.132227E-2,-3.9647512E-2,-1.5012456E-1,3.5350468E-2,-1.21674396E-1,-1.6713226E-2,-1.5032066E-1,-3.2179534E-1],"categories":[],"categories_nodes":[],"categories_segments":[],"categories_sizes":[],"default_left":[0,0,0,0,0,0,0,0,0,0,0,0,0,0,0,0,0,0,0,0,0,0,0,0,0,0,0,0,0,0,0],"id":21,"left_children":[1,3,5,7,9,11,13,15,17,19,21,23,25,27,29,-1,-1,-1,-1,-1,-1,-1,-1,-1,-1,-1,-1,-1,-1,-1,-1],"loss_changes":[7.5448553E2,9.678894E1,8.534321E2,9.095642E0,6.3875275E1,2.5108487E2,1.7919467E2,8.566437E0,1.437439E0,1.58893795E1,1.0884796E1,3.6695502E2,6.254127E2,1.6188379E2,5.64458E1,0E0,0E0,0E0,0E0,0E0,0E0,0E0,0E0,0E0,0E0,0E0,0E0,0E0,0E0,0E0,0E0],"parents":[2147483647,0,0,1,1,2,2,3,3,4,4,5,5,6,6,7,7,8,8,9,9,10,10,11,11,12,12,13,13,14,14],"right_children":[2,4,6,8,10,12,14,16,18,20,22,24,26,28,30,-1,-1,-1,-1,-1,-1,-1,-1,-1,-1,-1,-1,-1,-1,-1,-1],"split_conditions":[6E0,3E0,2.1E1,5E0,5E0,5E0,2.3E1,2E0,1E0,2E0,7E0,1.9E1,9E0,4E0,7E0,-1.0865324E-1,-1.5173402E-1,-8.819004E-2,-1.11165814E-1,4.366247E-2,-2.490243E-2,-6.655087E-2,-1.1821218E-1,9.132227E-2,-3.9647512E-2,-1.5012456E-1,3.5350468E-2,-1.21674396E-1,-1.6713226E-2,-1.5032066E-1,-3.2179534E-1],"split_indices":[1,1,1,0,0,0,1,0,1,0,0,1,1,0,0,0,0,0,0,0,0,0,0,0,0,0,0,0,0,0,0],"split_type":[0,0,0,0,0,0,0,0,0,0,0,0,0,0,0,0,0,0,0,0,0,0,0,0,0,0,0,0,0,0,0],"sum_hessian":[4.828E3,7.97E2,4.031E3,4.44E2,3.53E2,3.27E3,7.61E2,2.3E2,2.14E2,1.79E2,1.74E2,1.518E3,1.752E3,6.29E2,1.32E2,9.3E1,1.37E2,7E1,1.44E2,4.4E1,1.35E2,8.7E1,8.7E1,1.261E3,2.57E2,2.05E2,1.547E3,2.33E2,3.96E2,1.08E2,2.4E1],"tree_param":{"num_deleted":"0","num_feature":"2","num_nodes":"31","size_leaf_vector":"1"}},{"base_weights":[-3.874664E-3,-1.0435954E0,1.18602015E-1,-1.1382797E0,-8.026838E-1,2.9464072E-1,-7.039917E-1,-1.217391E0,-9.5933266E-2,-8.494669E-1,-4.9825817E-2,4.2972922E-1,-2.995811E-1,-5.0174767E-1,-1.6566963E0,-9.5778234E-2,-1.3141035E-1,-5.8574047E-2,-9.0267055E-2,3.0440572E-3,5.2375656E-2,-9.650647E-2,3.6479704E-2,-1.0955894E-1,-1.5046127E-2,-1.3542649E-1,-2.90903E-1],"categories":[],"categories_nodes":[],"categories_segments":[],"categories_sizes":[],"default_left":[0,0,0,0,0,0,0,0,0,0,0,0,0,0,0,0,0,0,0,0,0,0,0,0,0,0,0],"id":22,"left_children":[1,3,5,7,9,11,13,15,-1,17,-1,19,21,23,25,-1,-1,-1,-1,-1,-1,-1,-1,-1,-1,-1,-1],"loss_changes":[6.15056E2,1.069696E1,6.2592426E2,3.9710083E0,1.6703186E0,2.8589902E2,1.4598996E2,4.967987E0,0E0,1.2392044E0,0E0,1.0889935E2,2.9215967E2,1.312585E2,4.6433533E1,0E0,0E0,0E0,0E0,0E0,0E0,0E0,0E0,0E0,0E0,0E0,0E0],"parents":[2147483647,0,0,1,1,2,2,3,3,4,4,5,5,6,6,7,7,9,9,11,11,12,12,13,13,14,14],"right_children":[2,4,6,8,10,12,14,16,-1,18,-1,20,22,24,26,-1,-1,-1,-1,-1,-1,-1,-1,-1,-1,-1,-1],"split_conditions":[4E0,7E0,2.1E1,2E0,3E0,7E0,2.3E1,1E0,-9.5933266E-2,1E0,-4.9825817E-2,9E0,1.4E1,4E0,7E0,-9.5778234E-2,-1.3141035E-1,-5.8574047E-2,-9.0267055E-2,3.0440572E-3,5.2375656E-2,-9.650647E-2,3.6479704E-2,-1.0955894E-1,-1.5046127E-2,-1.3542649E-1,-2.90903E-1],"split_indices":[1,0,1,1,1,0,1,1,0,1,0,1,1,0,0,0,0,0,0,0,0,0,0,0,0,0,0],"split_type":[0,0,0,0,0,0,0,0,0,0,0,0,0,0,0,0,0,0,0,0,0,0,0,0,0,0,0],"sum_hessian":[4.828E3,5.08E2,4.32E3,3.62E2,1.46E2,3.559E3,7.61E2,2.47E2,1.15E2,1.25E2,2.1E1,2.9E3,6.59E2,6.29E2,1.32E2,7E1,1.77E2,2.3E1,1.02E2,5.53E2,2.347E3,3.29E2,3.3E2,2.33E2,3.96E2,1.08E2,2.4E1],"tree_param":{"num_deleted":"0","num_feature":"2","num_nodes":"27","size_leaf_vector":"1"}},{"base_weights":[-3.710383E-3,-7.309105E-1,1.4021556E-1,-9.4026095E-1,-3.609439E-1,5.015258E-1,-3.139775E-1,-1.0253419E0,-7.2376674E-1,1.7384012E-1,-5.312958E-1,1.700269E-1,1.5666057E0,-1.1589029E-1,-1.2610875E0,-8.610067E-2,-1.0990337E-1,-7.6570146E-2,-4.506973E-2,-3.2762285E-2,-1.14046454E-1,4.459748E-2,-5.1838746E-3,2.541918E-1,1.2951796E-1,-1.3355894E-1,1.4051083E-2,-1.1366035E-1,-2.629763E-1],"categories":[],"categories_nodes":[],"categories_segments":[],"categories_sizes":[],"default_left":[0,0,0,0,0,0,0,0,0,0,0,0,0,0,0,0,0,0,0,0,0,0,0,0,0,0,0,0,0],"id":23,"left_children":[1,3,5,7,9,11,13,15,17,-1,19,21,23,25,27,-1,-1,-1,-1,-1,-1,-1,-1,-1,-1,-1,-1,-1,-1],"loss_changes":[5.055199E2,6.1467834E1,6.618272E2,8.633484E0,1.0463552E2,7.927352E2,3.3511365E2,3.449707E0,1.3382034E0,0E0,3.300151E1,1.04959946E2,1.3780615E2,4.6271863E2,4.965796E1,0E0,0E0,0E0,0E0,0E0,0E0,0E0,0E0,0E0,0E0,0E0,0E0,0E0,0E0],"parents":[2147483647,0,0,1,1,2,2,3,3,4,4,5,5,6,6,7,7,8,8,10,10,11,11,12,12,13,13,14,14],"right_children":[2,4,6,8,10,12,14,16,18,-1,20,22,24,26,28,-1,-1,-1,-1,-1,-1,-1,-1,-1,-1,-1,-1,-1,-1],"split_conditions":[6E0,4E0,1.7E1,7E0,2E0,1.5E1,7E0,2E0,3E0,1.7384012E-1,7E0,5E0,3E0,2E0,2.3E1,-8.610067E-2,-1.0990337E-1,-7.6570146E-2,-4.506973E-2,-3.2762285E-2,-1.14046454E-1,4.459748E-2,-5.1838746E-3,2.541918E-1,1.2951796E-1,-1.3355894E-1,1.4051083E-2,-1.1366035E-1,-2.629763E-1],"split_indices":[1,1,1,0,0,1,0,0,1,0,0,0,0,0,1,0,0,0,0,0,0,0,0,0,0,0,0,0,0],"split_type":[0,0,0,0,0,0,0,0,0,0,0,0,0,0,0,0,0,0,0,0,0,0,0,0,0,0,0,0,0],"sum_hessian":[4.828E3,7.97E2,4.031E3,5.08E2,2.89E2,2.245E3,1.786E3,3.62E2,1.46E2,2.1E1,2.68E2,1.713E3,5.32E2,1.478E3,3.08E2,1.16E2,2.46E2,1.25E2,2.1E1,2.02E2,6.6E1,7.63E2,9.5E2,1.14E2,4.18E2,2.56E2,1.222E3,2.84E2,2.4E1],"tree_param":{"num_deleted":"0","num_feature":"2","num_nodes":"29","size_leaf_vector":"1"}},{"base_weights":[-3.414752E-3,-6.5818363E-1,1.2617578E-1,-8.8183427E-1,-3.7518162E-1,4.5156154E-1,-2.828576E-1,-9.987881E-1,-7.520754E-1,-4.6079602E-2,-7.115426E-1,1.530473E-1,1.4106644E0,-1.0438237E-1,-1.1361973E0,-7.910119E-2,-1.13307916E-1,-6.150177E-2,-8.139997E-2,-2.129591E-2,4.172757E-2,-5.9742756E-2,-1.4780055E-1,2.6071748E-2,-3.31614E-2,2.2899358E-1,1.1659702E-1,-1.2025503E-1,1.264709E-2,-7.548072E-2,-1.5054147E-1],"categories":[],"categories_nodes":[],"categories_segments":[],"categories_sizes":[],"default_left":[0,0,0,0,0,0,0,0,0,0,0,0,0,0,0,0,0,0,0,0,0,0,0,0,0,0,0,0,0,0,0],"id":24,"left_children":[1,3,5,7,9,11,13,15,17,19,21,23,25,27,29,-1,-1,-1,-1,-1,-1,-1,-1,-1,-1,-1,-1,-1,-1,-1,-1],"loss_changes":[4.098326E2,5.017743E1,5.367613E2,6.0020447E0,3.915399E1,6.428271E2,2.720415E2,5.5491943E0,1.3241348E0,1.4007272E1,1.4423363E1,8.9529106E1,1.1200635E2,3.751017E2,4.2375732E1,0E0,0E0,0E0,0E0,0E0,0E0,0E0,0E0,0E0,0E0,0E0,0E0,0E0,0E0,0E0,0E0],"parents":[2147483647,0,0,1,1,2,2,3,3,4,4,5,5,6,6,7,7,8,8,9,9,10,10,11,11,12,12,13,13,14,14],"right_children":[2,4,6,8,10,12,14,16,18,20,22,24,26,28,30,-1,-1,-1,-1,-1,-1,-1,-1,-1,-1,-1,-1,-1,-1,-1,-1],"split_conditions":[6E0,3E0,1.7E1,5E0,5E0,1.5E1,7E0,2E0,1E0,4E0,5E0,7E0,3E0,2E0,2E1,-7.910119E-2,-1.13307916E-1,-6.150177E-2,-8.139997E-2,-2.129591E-2,4.172757E-2,-5.9742756E-2,-1.4780055E-1,2.6071748E-2,-3.31614E-2,2.2899358E-1,1.1659702E-1,-1.2025503E-1,1.264709E-2,-7.548072E-2,-1.5054147E-1],"split_indices":[1,1,1,0,0,1,0,0,1,0,1,0,0,0,1,0,0,0,0,0,0,0,0,0,0,0,0,0,0,0,0],"split_type":[0,0,0,0,0,0,0,0,0,0,0,0,0,0,0,0,0,0,0,0,0,0,0,0,0,0,0,0,0,0,0],"sum_hessian":[4.828E3,7.97E2,4.031E3,4.44E2,3.53E2,2.245E3,1.786E3,2.3E2,2.14E2,1.79E2,1.74E2,1.713E3,5.32E2,1.478E3,3.08E2,9.3E1,1.37E2,7E1,1.44E2,1.32E2,4.7E1,1.53E2,2.1E1,1.402E3,3.11E2,1.14E2,4.18E2,2.56E2,1.222E3,1.53E2,1.55E2],"tree_param":{"num_deleted":"0","num_feature":"2","num_nodes":"31","size_leaf_vector":"1"}},{"base_weights":[-3.1803322E-3,-5.9301996E-1,1.1355955E-1,-7.6464766E-1,-2.8973898E-1,3.7410453E-1,-3.091799E-1,-8.634851E-1,-6.2324214E-1,1.5927902E-1,-4.4262338E-1,1.3773854E-1,8.916969E-1,-8.97434E-1,9.10478E-3,-7.0858054E-2,-9.588461E-2,-6.5674454E-2,-4.7120254E-2,-2.6662398E-2,-9.692689E-2,3.7539814E-2,-5.333365E-3,1.270247E-1,8.106143E-3,-7.628328E-2,-1.2268444E-1,7.795562E-2,-5.721289E-2],"categories":[],"categories_nodes":[],"categories_segments":[],"categories_sizes":[],"default_left":[0,0,0,0,0,0,0,0,0,0,0,0,0,0,0,0,0,0,0,0,0,0,0,0,0,0,0,0,0],"id":25,"left_children":[1,3,5,7,9,11,13,15,17,-1,19,21,23,25,27,-1,-1,-1,-1,-1,-1,-1,-1,-1,-1,-1,-1,-1,-1],"loss_changes":[3.3258173E2,4.131549E1,4.4421085E2,6.575714E0,8.41697E1,3.0511844E2,2.8797137E2,3.7078247E0,7.7549744E-1,0E0,2.4674988E1,7.7853E1,2.3986633E2,2.3007233E1,4.478105E2,0E0,0E0,0E0,0E0,0E0,0E0,0E0,0E0,0E0,0E0,0E0,0E0,0E0,0E0],"parents":[2147483647,0,0,1,1,2,2,3,3,4,4,5,5,6,6,7,7,8,8,10,10,11,11,12,12,13,13,14,14],"right_children":[2,4,6,8,10,12,14,16,18,-1,20,22,24,26,28,-1,-1,-1,-1,-1,-1,-1,-1,-1,-1,-1,-1,-1,-1],"split_conditions":[6E0,4E0,1.8E1,6E0,2E0,1.5E1,4E0,2E0,3E0,1.5927902E-1,7E0,5E0,1.7E1,2.2E1,6E0,-7.0858054E-2,-9.588461E-2,-6.5674454E-2,-4.7120254E-2,-2.6662398E-2,-9.692689E-2,3.7539814E-2,-5.333365E-3,1.270247E-1,8.106143E-3,-7.628328E-2,-1.2268444E-1,7.795562E-2,-5.721289E-2],"split_indices":[1,1,1,0,0,1,0,0,1,0,0,0,1,1,0,0,0,0,0,0,0,0,0,0,0,0,0,0,0],"split_type":[0,0,0,0,0,0,0,0,0,0,0,0,0,0,0,0,0,0,0,0,0,0,0,0,0,0,0,0,0],"sum_hessian":[4.828E3,7.97E2,4.031E3,5.08E2,2.89E2,2.494E3,1.537E3,2.96E2,2.12E2,2.1E1,2.68E2,1.713E3,7.81E2,5.39E2,9.98E2,1.16E2,1.8E2,1.71E2,4.1E1,2.02E2,6.6E1,7.63E2,9.5E2,5.32E2,2.49E2,3.85E2,1.54E2,4.29E2,5.69E2],"tree_param":{"num_deleted":"0","num_feature":"2","num_nodes":"29","size_leaf_vector":"1"}},{"base_weights":[-2.9153118E-3,7.591745E-2,-7.933961E-1,-4.1714576E-1,2.6098534E-1,-1.2369367E0,-3.4420744E-1,5.509173E-3,-8.476369E-1,4.856248E-1,-4.6215203E-2,-1.1049515E0,-1.5281605E0,4.0930724E-1,-1.5369166E0,-4.723772E-2,1.000067E-1,-5.533254E-2,-1.3210246E-1,2.182131E-2,1.1434596E-1,-9.592551E-2,1.0050702E-2,-1.2733305E-1,-6.367705E-2,-2.083988E-1,-5.33244E-2,1.1626265E-1,-1.0258996E-1,-5.6754388E-2,-1.8664192E-1],"categories":[],"categories_nodes":[],"categories_segments":[],"categories_sizes":[],"default_left":[0,0,0,0,0,0,0,0,0,0,0,0,0,0,0,0,0,0,0,0,0,0,0,0,0,0,0,0,0,0,0],"id":26,"left_children":[1,3,5,7,9,11,13,15,17,19,21,23,25,27,29,-1,-1,-1,-1,-1,-1,-1,-1,-1,-1,-1,-1,-1,-1,-1,-1],"loss_changes":[3.0098315E2,4.0087964E2,8.683847E1,2.1816179E2,2.2043835E2,6.767639E0,1.974496E2,2.884955E2,8.202716E1,3.2430945E2,1.809468E2,1.1408127E1,3.538684E1,1.4715051E2,2.6090622E1,0E0,0E0,0E0,0E0,0E0,0E0,0E0,0E0,0E0,0E0,0E0,0E0,0E0,0E0,0E0,0E0],"parents":[2147483647,0,0,1,1,2,2,3,3,4,4,5,5,6,6,7,7,8,8,9,9,10,10,11,11,12,12,13,13,14,14],"right_children":[2,4,6,8,10,12,14,16,18,20,22,24,26,28,30,-1,-1,-1,-1,-1,-1,-1,-1,-1,-1,-1,-1,-1,-1,-1,-1],"split_conditions":[2.2E1,9E0,5E0,5E0,1.7E1,4E0,2.3E1,5E0,5E0,1.5E1,2E0,3E0,2.3E1,7E0,6E0,-4.723772E-2,1.000067E-1,-5.533254E-2,-1.3210246E-1,2.182131E-2,1.1434596E-1,-9.592551E-2,1.0050702E-2,-1.2733305E-1,-6.367705E-2,-2.083988E-1,-5.33244E-2,1.1626265E-1,-1.0258996E-1,-5.6754388E-2,-1.8664192E-1],"split_indices":[1,1,0,0,1,0,1,1,1,1,0,0,1,0,0,0,0,0,0,0,0,0,0,0,0,0,0,0,0,0,0],"split_type":[0,0,0,0,0,0,0,0,0,0,0,0,0,0,0,0,0,0,0,0,0,0,0,0,0,0,0,0,0,0,0],"sum_hessian":[4.828E3,4.391E3,4.37E2,1.198E3,3.193E3,2.19E2,2.18E2,6.05E2,5.93E2,1.844E3,1.349E3,1.54E2,6.5E1,1.34E2,8.4E1,4.09E2,1.96E2,3.67E2,2.26E2,1.312E3,5.32E2,1.86E2,1.163E3,1.12E2,4.2E1,4.1E1,2.4E1,8.8E1,4.6E1,2.2E1,6.2E1],"tree_param":{"num_deleted":"0","num_feature":"2","num_nodes":"31","size_leaf_vector":"1"}},{"base_weights":[-2.7826068E-3,6.830646E-2,-7.156146E-1,-3.755435E-1,2.3490252E-1,-1.1153009E0,-3.1083563E-1,5.0454E-3,-7.6318884E-1,4.3713585E-1,-4.1657057E-2,-9.956886E-1,-1.3793098E0,3.6847797E-1,-1.3860886E0,-7.497592E-2,5.4814827E-2,-4.981431E-2,-1.1895044E-1,1.9640787E-2,1.0293286E-1,1.3075848E-2,-8.43684E-2,-1.1471242E-1,-5.7457455E-2,-1.880551E-1,-4.8205238E-2,1.0476704E-1,-9.254923E-2,-5.132574E-2,-1.68274E-1],"categories":[],"categories_nodes":[],"categories_segments":[],"categories_sizes":[],"default_left":[0,0,0,0,0,0,0,0,0,0,0,0,0,0,0,0,0,0,0,0,0,0,0,0,0,0,0,0,0,0,0],"id":27,"left_children":[1,3,5,7,9,11,13,15,17,19,21,23,25,27,29,-1,-1,-1,-1,-1,-1,-1,-1,-1,-1,-1,-1,-1,-1,-1,-1],"loss_changes":[2.4475635E2,3.2484872E2,7.051497E1,1.768965E2,1.7865727E2,5.573944E0,1.6047578E2,2.4883253E2,6.652539E1,2.6281613E2,1.8679088E2,9.225494E0,2.8776466E1,1.19615E2,2.114508E1,0E0,0E0,0E0,0E0,0E0,0E0,0E0,0E0,0E0,0E0,0E0,0E0,0E0,0E0,0E0,0E0],"parents":[2147483647,0,0,1,1,2,2,3,3,4,4,5,5,6,6,7,7,8,8,9,9,10,10,11,11,12,12,13,13,14,14],"right_children":[2,4,6,8,10,12,14,16,18,20,22,24,26,28,30,-1,-1,-1,-1,-1,-1,-1,-1,-1,-1,-1,-1,-1,-1,-1,-1],"split_conditions":[2.2E1,9E0,5E0,5E0,1.7E1,4E0,2.3E1,4E0,5E0,1.5E1,7E0,3E0,2.3E1,7E0,6E0,-7.497592E-2,5.4814827E-2,-4.981431E-2,-1.1895044E-1,1.9640787E-2,1.0293286E-1,1.3075848E-2,-8.43684E-2,-1.1471242E-1,-5.7457455E-2,-1.880551E-1,-4.8205238E-2,1.0476704E-1,-9.254923E-2,-5.132574E-2,-1.68274E-1],"split_indices":[1,1,0,0,1,0,1,1,1,1,0,0,1,0,0,0,0,0,0,0,0,0,0,0,0,0,0,0,0,0,0],"split_type":[0,0,0,0,0,0,0,0,0,0,0,0,0,0,0,0,0,0,0,0,0,0,0,0,0,0,0,0,0,0,0],"sum_hessian":[4.828E3,4.391E3,4.37E2,1.198E3,3.193E3,2.19E2,2.18E2,6.05E2,5.93E2,1.844E3,1.349E3,1.54E2,6.5E1,1.34E2,8.4E1,2.53E2,3.52E2,3.67E2,2.26E2,1.312E3,5.32E2,1.111E3,2.38E2,1.12E2,4.2E1,4.1E1,2.4E1,8.8E1,4.6E1,2.2E1,6.2E1],"tree_param":{"num_deleted":"0","num_feature":"2","num_nodes":"31","size_leaf_vector":"1"}},{"base_weights":[-2.6601742E-3,6.144469E-2,-6.4545906E-1,-3.381468E-1,2.1142866E-1,-1.0056273E0,-2.8069893E-1,2.3054017E-1,-5.498789E-1,-4.017292E-1,2.9685423E-1,-8.972305E-1,-1.2449585E0,3.317209E-1,-1.2500633E0,-4.210974E-2,1.7289525E-1,-2.5773901E-2,-6.87154E-2,-1.1008276E-1,-9.919143E-3,3.8909968E-2,-1.2284781E-2,-1.0334269E-1,-5.1845323E-2,-1.6969734E-1,-4.357752E-2,9.4408065E-2,-8.34912E-2,-4.641631E-2,-1.5171371E-1],"categories":[],"categories_nodes":[],"categories_segments":[],"categories_sizes":[],"default_left":[0,0,0,0,0,0,0,0,0,0,0,0,0,0,0,0,0,0,0,0,0,0,0,0,0,0,0,0,0,0,0],"id":28,"left_children":[1,3,5,7,9,11,13,15,17,19,21,23,25,27,29,-1,-1,-1,-1,-1,-1,-1,-1,-1,-1,-1,-1,-1,-1,-1,-1],"loss_changes":[1.9902599E2,2.6329422E2,5.725998E1,1.4449748E2,1.6741893E2,4.590378E0,1.3042577E2,3.1904156E2,3.4873383E1,8.258874E1,1.086064E2,7.460373E0,2.3400864E1,9.723209E1,1.7136734E1,0E0,0E0,0E0,0E0,0E0,0E0,0E0,0E0,0E0,0E0,0E0,0E0,0E0,0E0,0E0,0E0],"parents":[2147483647,0,0,1,1,2,2,3,3,4,4,5,5,6,6,7,7,8,8,9,9,10,10,11,11,12,12,13,13,14,14],"right_children":[2,4,6,8,10,12,14,16,18,20,22,24,26,28,30,-1,-1,-1,-1,-1,-1,-1,-1,-1,-1,-1,-1,-1,-1,-1,-1],"split_conditions":[2.2E1,9E0,5E0,3E0,2E0,4E0,2.3E1,5E0,5E0,1.3E1,2E1,3E0,2.3E1,7E0,6E0,-4.210974E-2,1.7289525E-1,-2.5773901E-2,-6.87154E-2,-1.1008276E-1,-9.919143E-3,3.8909968E-2,-1.2284781E-2,-1.0334269E-1,-5.1845323E-2,-1.6969734E-1,-4.357752E-2,9.4408065E-2,-8.34912E-2,-4.641631E-2,-1.5171371E-1],"split_indices":[1,1,0,0,0,0,1,1,0,1,1,0,1,0,0,0,0,0,0,0,0,0,0,0,0,0,0,0,0,0,0],"split_type":[0,0,0,0,0,0,0,0,0,0,0,0,0,0,0,0,0,0,0,0,0,0,0,0,0,0,0,0,0,0,0],"sum_hessian":[4.828E3,4.391E3,4.37E2,1.198E3,3.193E3,2.19E2,2.18E2,3.25E2,8.73E2,3.9E2,2.803E3,1.54E2,6.5E1,1.34E2,8.4E1,2.27E2,9.8E1,2.8E2,5.93E2,1.17E2,2.73E2,2.298E3,5.05E2,1.12E2,4.2E1,4.1E1,2.4E1,8.8E1,4.6E1,2.2E1,6.2E1],"tree_param":{"num_deleted":"0","num_feature":"2","num_nodes":"31","size_leaf_vector":"1"}},{"base_weights":[-2.5209975E-3,5.528728E-2,-5.8218175E-1,-3.0430186E-1,1.9025663E-1,-9.067393E-1,-2.5348392E-1,2.0788722E-1,-4.9499902E-1,-3.6186352E-1,2.6717842E-1,-8.0850863E-1,-1.123694E0,2.9862967E-1,-1.127388E0,-3.7917245E-2,1.5578036E-1,-2.320567E-2,-6.1855424E-2,1.0066897E-2,-8.669828E-2,5.0809897E-2,1.1641338E-2,-9.3099885E-2,-4.6781342E-2,-1.531316E-1,-3.9394107E-2,8.5073344E-2,-7.531971E-2,-4.1976485E-2,-1.3678317E-1],"categories":[],"categories_nodes":[],"categories_segments":[],"categories_sizes":[],"default_left":[0,0,0,0,0,0,0,0,0,0,0,0,0,0,0,0,0,0,0,0,0,0,0,0,0,0,0,0,0,0,0],"id":29,"left_children":[1,3,5,7,9,11,13,15,17,19,21,23,25,27,29,-1,-1,-1,-1,-1,-1,-1,-1,-1,-1,-1,-1,-1,-1,-1,-1],"loss_changes":[1.6184807E2,2.1321704E2,4.6496597E1,1.1721285E2,1.3574611E2,3.7800293E0,1.0600292E2,2.5893964E2,2.8250885E1,9.1438194E1,1.017888E2,6.0328903E0,1.9029335E1,7.903763E1,1.3888031E1,0E0,0E0,0E0,0E0,0E0,0E0,0E0,0E0,0E0,0E0,0E0,0E0,0E0,0E0,0E0,0E0],"parents":[2147483647,0,0,1,1,2,2,3,3,4,4,5,5,6,6,7,7,8,8,9,9,10,10,11,11,12,12,13,13,14,14],"right_children":[2,4,6,8,10,12,14,16,18,20,22,24,26,28,30,-1,-1,-1,-1,-1,-1,-1,-1,-1,-1,-1,-1,-1,-1,-1,-1],"split_conditions":[2.2E1,9E0,5E0,3E0,2E0,4E0,2.3E1,5E0,5E0,1.7E1,5E0,3E0,2.3E1,7E0,6E0,-3.7917245E-2,1.5578036E-1,-2.320567E-2,-6.1855424E-2,1.0066897E-2,-8.669828E-2,5.0809897E-2,1.1641338E-2,-9.3099885E-2,-4.6781342E-2,-1.531316E-1,-3.9394107E-2,8.5073344E-2,-7.531971E-2,-4.1976485E-2,-1.3678317E-1],"split_indices":[1,1,0,0,0,0,1,1,0,1,0,0,1,0,0,0,0,0,0,0,0,0,0,0,0,0,0,0,0,0,0],"split_type":[0,0,0,0,0,0,0,0,0,0,0,0,0,0,0,0,0,0,0,0,0,0,0,0,0,0,0,0,0,0,0],"sum_hessian":[4.828E3,4.391E3,4.37E2,1.198E3,3.193E3,2.19E2,2.18E2,3.25E2,8.73E2,3.9E2,2.803E3,1.54E2,6.5E1,1.34E2,8.4E1,2.27E2,9.8E1,2.8E2,5.93E2,2.04E2,1.86E2,1.078E3,1.725E3,1.12E2,4.2E1,4.1E1,2.4E1,8.8E1,4.6E1,2.2E1,6.2E1],"tree_param":{"num_deleted":"0","num_feature":"2","num_nodes":"31","size_leaf_vector":"1"}},{"base_weights":[-2.3687514E-3,4.9762916E-2,-5.251083E-1,-2.7384448E-1,1.7122675E-1,-8.175762E-1,-2.2890715E-1,1.8745984E-1,-4.455966E-1,3.4179217E-1,-6.2006127E-2,-7.2856015E-1,-1.0142416E0,2.688389E-1,-1.016752E0,-6.2330443E-2,9.921374E-2,-2.089339E-2,-5.5680305E-2,1.2755922E-2,8.688955E-2,9.490296E-3,-7.918007E-2,-8.387228E-2,-4.2211983E-2,-1.3818306E-1,-3.5612244E-2,7.666158E-2,-6.7947984E-2,-3.79613E-2,-1.2332194E-1],"categories":[],"categories_nodes":[],"categories_segments":[],"categories_sizes":[],"default_left":[0,0,0,0,0,0,0,0,0,0,0,0,0,0,0,0,0,0,0,0,0,0,0,0,0,0,0,0,0,0,0],"id":30,"left_children":[1,3,5,7,9,11,13,15,17,19,21,23,25,27,29,-1,-1,-1,-1,-1,-1,-1,-1,-1,-1,-1,-1,-1,-1,-1,-1],"loss_changes":[1.3162257E2,1.7268147E2,3.77565E1,9.50803E1,1.27083176E2,3.1124725E0,8.6153465E1,2.1330203E2,2.2885971E1,2.0823192E2,1.5466551E2,4.8784866E0,1.5474449E1,6.42478E1,1.1255043E1,0E0,0E0,0E0,0E0,0E0,0E0,0E0,0E0,0E0,0E0,0E0,0E0,0E0,0E0,0E0,0E0],"parents":[2147483647,0,0,1,1,2,2,3,3,4,4,5,5,6,6,7,7,8,8,9,9,10,10,11,11,12,12,13,13,14,14],"right_children":[2,4,6,8,10,12,14,16,18,20,22,24,26,28,30,-1,-1,-1,-1,-1,-1,-1,-1,-1,-1,-1,-1,-1,-1,-1,-1],"split_conditions":[2.2E1,9E0,5E0,3E0,1.7E1,4E0,2.3E1,4E0,5E0,1.5E1,7E0,3E0,2.3E1,7E0,6E0,-6.2330443E-2,9.921374E-2,-2.089339E-2,-5.5680305E-2,1.2755922E-2,8.688955E-2,9.490296E-3,-7.918007E-2,-8.387228E-2,-4.2211983E-2,-1.3818306E-1,-3.5612244E-2,7.666158E-2,-6.7947984E-2,-3.79613E-2,-1.2332194E-1],"split_indices":[1,1,0,0,1,0,1,1,0,1,0,0,1,0,0,0,0,0,0,0,0,0,0,0,0,0,0,0,0,0,0],"split_type":[0,0,0,0,0,0,0,0,0,0,0,0,0,0,0,0,0,0,0,0,0,0,0,0,0,0,0,0,0,0,0],"sum_hessian":[4.828E3,4.391E3,4.37E2,1.198E3,3.193E3,2.19E2,2.18E2,3.25E2,8.73E2,1.844E3,1.349E3,1.54E2,6.5E1,1.34E2,8.4E1,1.62E2,1.63E2,2.8E2,5.93E2,1.312E3,5.32E2,1.111E3,2.38E2,1.12E2,4.2E1,4.1E1,2.4E1,8.8E1,4.6E1,2.2E1,6.2E1],"tree_param":{"num_deleted":"0","num_feature":"2","num_nodes":"31","size_leaf_vector":"1"}},{"base_weights":[-2.2277292E-3,6.2292345E-2,-3.4667054E-1,-2.4649325E-1,1.91272E-1,-2.4225958E-1,-8.386423E-1,1.688268E-1,-4.0112466E-1,-3.9933223E-1,2.721266E-1,-5.437403E-1,-6.395041E-2,-6.926102E-1,-1.4417966E-1,-3.2541875E-2,1.3053839E-1,-2.7616426E-2,-6.1136182E-2,5.3366516E-3,-1.050064E-1,4.950918E-2,1.3108517E-2,-1.8158717E-2,-7.729315E-2,3.4827463E-2,-3.7103068E-2,-1.0219289E-1,-5.876034E-2],"categories":[],"categories_nodes":[],"categories_segments":[],"categories_sizes":[],"default_left":[0,0,0,0,0,0,0,0,0,0,0,0,0,0,0,0,0,0,0,0,0,0,0,0,0,0,0,0,0],"id":31,"left_children":[1,3,5,7,9,11,13,15,17,19,21,23,25,27,-1,-1,-1,-1,-1,-1,-1,-1,-1,-1,-1,-1,-1,-1,-1],"loss_changes":[1.0733877E2,1.6206363E2,3.8938667E1,7.706932E1,1.3715994E2,3.383199E1,1.0716019E1,1.8355148E2,2.2792297E1,1.01982605E2,7.9339584E1,1.9282188E1,5.0383938E1,3.168808E0,0E0,0E0,0E0,0E0,0E0,0E0,0E0,0E0,0E0,0E0,0E0,0E0,0E0,0E0,0E0],"parents":[2147483647,0,0,1,1,2,2,3,3,4,4,5,5,6,6,7,7,8,8,9,9,10,10,11,11,12,12,13,13],"right_children":[2,4,6,8,10,12,14,16,18,20,22,24,26,28,-1,-1,-1,-1,-1,-1,-1,-1,-1,-1,-1,-1,-1,-1,-1],"split_conditions":[2.1E1,9E0,2.3E1,3E0,2E0,4E0,7E0,5E0,5E0,1.7E1,5E0,2E0,6E0,2E0,-1.4417966E-1,-3.2541875E-2,1.3053839E-1,-2.7616426E-2,-6.1136182E-2,5.3366516E-3,-1.050064E-1,4.950918E-2,1.3108517E-2,-1.8158717E-2,-7.729315E-2,3.4827463E-2,-3.7103068E-2,-1.0219289E-1,-5.876034E-2],"split_indices":[1,1,1,0,0,0,0,1,1,1,0,0,0,0,0,0,0,0,0,0,0,0,0,0,0,0,0,0,0],"split_type":[0,0,0,0,0,0,0,0,0,0,0,0,0,0,0,0,0,0,0,0,0,0,0,0,0,0,0,0,0],"sum_hessian":[4.828E3,4.067E3,7.61E2,1.198E3,2.869E3,6.29E2,1.32E2,3.25E2,8.73E2,3.45E2,2.524E3,2.33E2,3.96E2,1.08E2,2.4E1,2.27E2,9.8E1,5.49E2,3.24E2,2.04E2,1.41E2,9.77E2,1.547E3,9.1E1,1.42E2,1.69E2,2.27E2,2.4E1,8.4E1],"tree_param":{"num_deleted":"0","num_feature":"2","num_nodes":"29","size_leaf_vector":"1"}},{"base_weights":[-2.0942301E-3,4.070615E-2,-4.3126586E-1,-2.3273654E-1,1.353888E-1,-6.9280505E-1,-1.6656315E-1,1.28531335E-2,-5.157739E-1,-3.127636E-1,1.9633284E-1,-5.9341735E-1,-9.1571856E-1,2.5540403E-1,-8.347868E-1,-5.2860107E-2,4.0241834E-2,-2.3517776E-2,-1.16604984E-1,-1.0195994E-1,-7.218424E-4,2.7389059E-2,-1.0424039E-2,-6.9776766E-2,-3.0539408E-2,-1.280936E-1,-2.6552452E-2,6.91941E-2,-5.766639E-2,-2.8709665E-2,-1.0214865E-1],"categories":[],"categories_nodes":[],"categories_segments":[],"categories_sizes":[],"default_left":[0,0,0,0,0,0,0,0,0,0,0,0,0,0,0,0,0,0,0,0,0,0,0,0,0,0,0,0,0,0,0],"id":32,"left_children":[1,3,5,7,9,11,13,15,17,19,21,23,25,27,29,-1,-1,-1,-1,-1,-1,-1,-1,-1,-1,-1,-1,-1,-1,-1,-1],"loss_changes":[8.872005E1,1.1374163E2,3.0207405E1,7.855412E1,8.918117E1,4.3306656E0,6.19643E1,1.2803734E2,9.551985E1,8.443701E1,6.70033E1,4.4454803E0,1.5332382E1,4.9434856E1,8.398285E0,0E0,0E0,0E0,0E0,0E0,0E0,0E0,0E0,0E0,0E0,0E0,0E0,0E0,0E0,0E0,0E0],"parents":[2147483647,0,0,1,1,2,2,3,3,4,4,5,5,6,6,7,7,8,8,9,9,10,10,11,11,12,12,13,13,14,14],"right_children":[2,4,6,8,10,12,14,16,18,20,22,24,26,28,30,-1,-1,-1,-1,-1,-1,-1,-1,-1,-1,-1,-1,-1,-1,-1,-1],"split_conditions":[2.2E1,8E0,5E0,5E0,2E0,4E0,2.3E1,4E0,5E0,1.3E1,7E0,3E0,2.3E1,7E0,6E0,-5.2860107E-2,4.0241834E-2,-2.3517776E-2,-1.16604984E-1,-1.0195994E-1,-7.218424E-4,2.7389059E-2,-1.0424039E-2,-6.9776766E-2,-3.0539408E-2,-1.280936E-1,-2.6552452E-2,6.91941E-2,-5.766639E-2,-2.8709665E-2,-1.0214865E-1],"split_indices":[1,1,0,0,0,0,1,1,1,1,0,0,1,0,0,0,0,0,0,0,0,0,0,0,0,0,0,0,0,0,0],"split_type":[0,0,0,0,0,0,0,0,0,0,0,0,0,0,0,0,0,0,0,0,0,0,0,0,0,0,0,0,0,0,0],"sum_hessian":[4.828E3,4.391E3,4.37E2,1.129E3,3.262E3,2.19E2,2.18E2,6.05E2,5.24E2,3.9E2,2.872E3,1.54E2,6.5E1,1.34E2,8.4E1,2.53E2,3.52E2,3.67E2,1.57E2,1.17E2,2.73E2,2.283E3,5.89E2,1.12E2,4.2E1,4.1E1,2.4E1,8.8E1,4.6E1,2.2E1,6.2E1],"tree_param":{"num_deleted":"0","num_feature":"2","num_nodes":"31","size_leaf_vector":"1"}},{"base_weights":[-2.012011E-3,5.3045265E-2,-2.959372E-1,-2.0094325E-1,1.5913557E-1,-2.1284173E-1,-6.8732226E-1,1.5839173E-1,-3.3474445E-1,-3.2473418E-1,2.2537708E-1,-4.6470192E-1,-6.3853994E-2,-5.6220937E-1,-1.2053213E-1,-2.6693353E-2,1.1363287E-1,-2.3081765E-2,-5.0959058E-2,1.0655315E-2,-9.4508044E-2,7.173197E-2,1.6493196E-2,-1.2838426E-2,-6.7782454E-2,3.1310275E-2,-3.446382E-2,-8.568381E-2,-4.6893965E-2],"categories":[],"categories_nodes":[],"categories_segments":[],"categories_sizes":[],"default_left":[0,0,0,0,0,0,0,0,0,0,0,0,0,0,0,0,0,0,0,0,0,0,0,0,0,0,0,0,0],"id":33,"left_children":[1,3,5,7,9,11,13,15,17,19,21,23,25,27,-1,-1,-1,-1,-1,-1,-1,-1,-1,-1,-1,-1,-1,-1,-1],"loss_changes":[7.816206E1,1.09647156E2,2.463572E1,5.770028E1,9.206319E1,2.36105E1,7.941868E0,1.3590019E2,1.5764008E1,9.267212E1,7.49639E1,1.6685371E1,4.2127773E1,2.593502E0,0E0,0E0,0E0,0E0,0E0,0E0,0E0,0E0,0E0,0E0,0E0,0E0,0E0,0E0,0E0],"parents":[2147483647,0,0,1,1,2,2,3,3,4,4,5,5,6,6,7,7,8,8,9,9,10,10,11,11,12,12,13,13],"right_children":[2,4,6,8,10,12,14,16,18,20,22,24,26,28,-1,-1,-1,-1,-1,-1,-1,-1,-1,-1,-1,-1,-1,-1,-1],"split_conditions":[2.1E1,9E0,2.3E1,3E0,2E0,4E0,7E0,5E0,5E0,1.7E1,1E1,2E0,6E0,2E0,-1.2053213E-1,-2.6693353E-2,1.1363287E-1,-2.3081765E-2,-5.0959058E-2,1.0655315E-2,-9.4508044E-2,7.173197E-2,1.6493196E-2,-1.2838426E-2,-6.7782454E-2,3.1310275E-2,-3.446382E-2,-8.568381E-2,-4.6893965E-2],"split_indices":[1,1,1,0,0,0,0,1,1,1,1,0,0,0,0,0,0,0,0,0,0,0,0,0,0,0,0,0,0],"split_type":[0,0,0,0,0,0,0,0,0,0,0,0,0,0,0,0,0,0,0,0,0,0,0,0,0,0,0,0,0],"sum_hessian":[4.828E3,4.067E3,7.61E2,1.198E3,2.869E3,6.29E2,1.32E2,3.25E2,8.73E2,3.45E2,2.524E3,2.33E2,3.96E2,1.08E2,2.4E1,2.27E2,9.8E1,5.49E2,3.24E2,2.04E2,1.41E2,2.75E2,2.249E3,9.1E1,1.42E2,1.69E2,2.27E2,2.4E1,8.4E1],"tree_param":{"num_deleted":"0","num_feature":"2","num_nodes":"29","size_leaf_vector":"1"}},{"base_weights":[-1.876782E-3,7.7564314E-2,-1.7191464E-1,-5.7799157E-2,5.121169E-1,-6.109115E-1,6.555305E-2,-3.61638E-1,7.641621E-3,1.4455838E0,1.8015696E-1,-1.0379635E0,-4.0677536E-1,6.549826E-1,-3.7921935E-1,-4.712302E-2,-2.422081E-2,1.1724318E-2,-3.220275E-2,8.735081E-2,2.181396E-1,4.95076E-2,-6.4566314E-2,-1.541976E-1,-7.0008785E-2,-1.7097993E-2,-5.5144664E-2,1.0701539E-1,-2.9040528E-2,-1.1013323E-1,-2.521436E-2],"categories":[],"categories_nodes":[],"categories_segments":[],"categories_sizes":[],"default_left":[0,0,0,0,0,0,0,0,0,0,0,0,0,0,0,0,0,0,0,0,0,0,0,0,0,0,0,0,0,0,0],"id":34,"left_children":[1,3,5,7,9,11,13,15,17,19,21,23,25,27,29,-1,-1,-1,-1,-1,-1,-1,-1,-1,-1,-1,-1,-1,-1,-1,-1],"loss_changes":[6.524344E1,1.9367342E2,1.603728E2,4.993011E1,2.4206076E2,4.665323E1,2.6214822E2,5.7102814E0,7.472311E1,8.43873E1,1.5063806E2,2.855156E1,1.242511E1,1.6908488E2,5.2027252E1,0E0,0E0,0E0,0E0,0E0,0E0,0E0,0E0,0E0,0E0,0E0,0E0,0E0,0E0,0E0,0E0],"parents":[2147483647,0,0,1,1,2,2,3,3,4,4,5,5,6,6,7,7,8,8,9,9,10,10,11,11,12,12,13,13,14,14],"right_children":[2,4,6,8,10,12,14,16,18,20,22,24,26,28,30,-1,-1,-1,-1,-1,-1,-1,-1,-1,-1,-1,-1,-1,-1,-1,-1],"split_conditions":[1.8E1,1.5E1,4E0,3E0,3E0,2E1,6E0,5E0,1.2E1,2E0,1.7E1,2E0,2E0,2.2E1,1.9E1,-4.712302E-2,-2.422081E-2,1.1724318E-2,-3.220275E-2,8.735081E-2,2.181396E-1,4.95076E-2,-6.4566314E-2,-1.541976E-1,-7.0008785E-2,-1.7097993E-2,-5.5144664E-2,1.0701539E-1,-2.9040528E-2,-1.1013323E-1,-2.521436E-2],"split_indices":[1,1,0,1,0,1,0,0,1,0,1,0,0,1,1,0,0,0,0,0,0,0,0,0,0,0,0,0,0,0,0],"split_type":[0,0,0,0,0,0,0,0,0,0,0,0,0,0,0,0,0,0,0,0,0,0,0,0,0,0,0,0,0,0,0],"sum_hessian":[4.828E3,3.291E3,1.537E3,2.51E3,7.81E2,5.39E2,9.98E2,4.44E2,2.066E3,2.04E2,5.77E2,1.73E2,3.66E2,4.29E2,5.69E2,2.3E2,2.14E2,1.551E3,5.15E2,1.16E2,8.8E1,4.18E2,1.59E2,6.8E1,1.05E2,1.4E2,2.26E2,2.98E2,1.31E2,8.4E1,4.85E2],"tree_param":{"num_deleted":"0","num_feature":"2","num_nodes":"31","size_leaf_vector":"1"}},{"base_weights":[-1.7212102E-3,4.5004956E-2,-2.5117046E-1,-1.8430597E-1,1.3315614E-1,-1.7805682E-1,-5.9560966E-1,2.8972581E-2,-4.301393E-1,-2.895239E-1,1.8948388E-1,-3.4662113E-1,-6.2309452E-3,-4.8239416E-1,-1.0654048E-1,-4.0904608E-2,3.440654E-2,-1.7949454E-2,-1.0111971E-1,-9.321312E-2,4.2865546E-3,3.7048154E-2,7.9895025E-3,-8.04547E-3,-5.7208534E-2,7.334917E-2,-2.8522179E-2,-7.581676E-2,-3.956091E-2],"categories":[],"categories_nodes":[],"categories_segments":[],"categories_sizes":[],"default_left":[0,0,0,0,0,0,0,0,0,0,0,0,0,0,0,0,0,0,0,0,0,0,0,0,0,0,0,0,0],"id":35,"left_children":[1,3,5,7,9,11,13,15,17,19,21,23,25,27,-1,-1,-1,-1,-1,-1,-1,-1,-1,-1,-1,-1,-1,-1,-1],"loss_changes":[5.629719E1,8.225521E1,1.908355E1,5.925946E1,7.0028366E1,1.8244976E1,6.560066E0,8.3778755E1,7.6279015E1,7.394413E1,5.1423225E1,1.9037472E1,6.480484E1,2.3087597E0,0E0,0E0,0E0,0E0,0E0,0E0,0E0,0E0,0E0,0E0,0E0,0E0,0E0,0E0,0E0],"parents":[2147483647,0,0,1,1,2,2,3,3,4,4,5,5,6,6,7,7,8,8,9,9,10,10,11,11,12,12,13,13],"right_children":[2,4,6,8,10,12,14,16,18,20,22,24,26,28,-1,-1,-1,-1,-1,-1,-1,-1,-1,-1,-1,-1,-1,-1,-1],"split_conditions":[2.1E1,8E0,2.3E1,5E0,2E0,5E0,7E0,4E0,5E0,1.3E1,5E0,2.2E1,6E0,2E0,-1.0654048E-1,-4.0904608E-2,3.440654E-2,-1.7949454E-2,-1.0111971E-1,-9.321312E-2,4.2865546E-3,3.7048154E-2,7.9895025E-3,-8.04547E-3,-5.7208534E-2,7.334917E-2,-2.8522179E-2,-7.581676E-2,-3.956091E-2],"split_indices":[1,1,1,0,0,0,0,1,1,1,0,1,0,0,0,0,0,0,0,0,0,0,0,0,0,0,0,0,0],"split_type":[0,0,0,0,0,0,0,0,0,0,0,0,0,0,0,0,0,0,0,0,0,0,0,0,0,0,0,0,0],"sum_hessian":[4.828E3,4.067E3,7.61E2,1.129E3,2.938E3,6.29E2,1.32E2,6.05E2,5.24E2,3.45E2,2.593E3,3.17E2,3.12E2,1.08E2,2.4E1,2.53E2,3.52E2,3.67E2,1.57E2,1.17E2,2.28E2,9.77E2,1.616E3,1.46E2,1.71E2,8.5E1,2.27E2,2.4E1,8.4E1],"tree_param":{"num_deleted":"0","num_feature":"2","num_nodes":"29","size_leaf_vector":"1"}},{"base_weights":[-1.6344711E-3,6.8646856E-2,-1.5206651E-1,-4.844998E-2,4.445567E-1,-5.453979E-1,6.069723E-2,1.7004425E-2,-3.015479E-1,1.2841867E0,1.459949E-1,-9.5948744E-1,-3.4758592E-1,5.744505E-1,-3.2697752E-1,-1.5804332E-2,2.7999345E-2,-1.2968355E-1,2.333177E-3,7.826546E-2,1.9290753E-1,4.280069E-2,-5.9343647E-2,-1.3942377E-1,-6.674379E-2,-1.2062669E-2,-4.8702937E-2,1.651612E-1,2.8446183E-2,-1.0003902E-1,-2.085268E-2],"categories":[],"categories_nodes":[],"categories_segments":[],"categories_sizes":[],"default_left":[0,0,0,0,0,0,0,0,0,0,0,0,0,0,0,0,0,0,0,0,0,0,0,0,0,0,0,0,0,0,0],"id":36,"left_children":[1,3,5,7,9,11,13,15,17,19,21,23,25,27,29,-1,-1,-1,-1,-1,-1,-1,-1,-1,-1,-1,-1,-1,-1,-1,-1],"loss_changes":[5.106535E1,1.4492831E2,1.2874316E2,4.16033E1,1.9584543E2,4.3898926E1,1.9915784E2,9.193137E1,1.6687822E2,6.479382E1,1.20783485E2,2.1161942E1,1.1556057E1,1.3384698E2,4.5258133E1,0E0,0E0,0E0,0E0,0E0,0E0,0E0,0E0,0E0,0E0,0E0,0E0,0E0,0E0,0E0,0E0],"parents":[2147483647,0,0,1,1,2,2,3,3,4,4,5,5,6,6,7,7,8,8,9,9,10,10,11,11,12,12,13,13,14,14],"right_children":[2,4,6,8,10,12,14,16,18,20,22,24,26,28,30,-1,-1,-1,-1,-1,-1,-1,-1,-1,-1,-1,-1,-1,-1,-1,-1],"split_conditions":[1.8E1,1.5E1,4E0,1.2E1,3E0,2E1,6E0,9E0,1.3E1,2E0,1.7E1,2E0,2E0,1.9E1,1.9E1,-1.5804332E-2,2.7999345E-2,-1.2968355E-1,2.333177E-3,7.826546E-2,1.9290753E-1,4.280069E-2,-5.9343647E-2,-1.3942377E-1,-6.674379E-2,-1.2062669E-2,-4.8702937E-2,1.651612E-1,2.8446183E-2,-1.0003902E-1,-2.085268E-2],"split_indices":[1,1,0,1,0,1,0,1,1,0,1,0,0,1,1,0,0,0,0,0,0,0,0,0,0,0,0,0,0,0,0],"split_type":[0,0,0,0,0,0,0,0,0,0,0,0,0,0,0,0,0,0,0,0,0,0,0,0,0,0,0,0,0,0,0],"sum_hessian":[4.828E3,3.291E3,1.537E3,2.51E3,7.81E2,5.39E2,9.98E2,1.995E3,5.15E2,2.04E2,5.77E2,1.73E2,3.66E2,4.29E2,5.69E2,1.198E3,7.97E2,1.26E2,3.89E2,1.16E2,8.8E1,4.18E2,1.59E2,6.8E1,1.05E2,1.4E2,2.26E2,9E1,3.39E2,8.4E1,4.85E2],"tree_param":{"num_deleted":"0","num_feature":"2","num_nodes":"31","size_leaf_vector":"1"}},{"base_weights":[-1.4823966E-3,3.8624115E-2,-2.1559237E-1,-1.5019618E-1,1.1120945E-1,-1.4768077E-1,-5.356579E-1,1.7510167E-1,-2.817451E-1,-2.5790915E-1,1.6040136E-1,-2.9447863E-1,1.9338961E-3,-4.3729186E-1,-9.431075E-2,-1.8116413E-2,9.9382386E-2,-1.6693046E-2,-5.2731663E-2,9.511216E-3,-7.657363E-2,2.2253806E-2,-7.416252E-3,-5.7876203E-3,-4.9497906E-2,6.328802E-2,-2.3606308E-2,-6.738031E-2,-3.6258515E-2],"categories":[],"categories_nodes":[],"categories_segments":[],"categories_sizes":[],"default_left":[0,0,0,0,0,0,0,0,0,0,0,0,0,0,0,0,0,0,0,0,0,0,0,0,0,0,0,0,0],"id":37,"left_children":[1,3,5,7,9,11,13,15,17,19,21,23,25,27,-1,-1,-1,-1,-1,-1,-1,-1,-1,-1,-1,-1,-1,-1,-1],"loss_changes":[4.1475937E1,5.577102E1,1.6483845E1,4.8404953E1,5.34067E1,1.3837331E1,4.9181213E0,9.526859E1,2.260912E1,6.2101562E1,3.7824112E1,1.5056921E1,4.7150513E1,1.6816082E0,0E0,0E0,0E0,0E0,0E0,0E0,0E0,0E0,0E0,0E0,0E0,0E0,0E0,0E0,0E0],"parents":[2147483647,0,0,1,1,2,2,3,3,4,4,5,5,6,6,7,7,8,8,9,9,10,10,11,11,12,12,13,13],"right_children":[2,4,6,8,10,12,14,16,18,20,22,24,26,28,-1,-1,-1,-1,-1,-1,-1,-1,-1,-1,-1,-1,-1,-1,-1],"split_conditions":[2.1E1,8E0,2.3E1,3E0,2E0,5E0,7E0,5E0,5E0,1.7E1,7E0,2.2E1,6E0,2E0,-9.431075E-2,-1.8116413E-2,9.9382386E-2,-1.6693046E-2,-5.2731663E-2,9.511216E-3,-7.657363E-2,2.2253806E-2,-7.416252E-3,-5.7876203E-3,-4.9497906E-2,6.328802E-2,-2.3606308E-2,-6.738031E-2,-3.6258515E-2],"split_indices":[1,1,1,0,0,0,0,1,1,1,0,1,0,0,0,0,0,0,0,0,0,0,0,0,0,0,0,0,0],"split_type":[0,0,0,0,0,0,0,0,0,0,0,0,0,0,0,0,0,0,0,0,0,0,0,0,0,0,0,0,0],"sum_hessian":[4.828E3,4.067E3,7.61E2,1.129E3,2.938E3,6.29E2,1.32E2,3.25E2,8.04E2,3.45E2,2.593E3,3.17E2,3.12E2,1.08E2,2.4E1,2.27E2,9.8E1,5.49E2,2.55E2,2.04E2,1.41E2,2.05E3,5.43E2,1.46E2,1.71E2,8.5E1,2.27E2,2.4E1,8.4E1],"tree_param":{"num_deleted":"0","num_feature":"2","num_nodes":"29","size_leaf_vector":"1"}},{"base_weights":[-1.3864865E-3,5.8222648E-2,-1.2897548E-1,-4.5351762E-2,3.9072537E-1,-4.6993867E-1,5.5458035E-2,1.6964052E-2,-2.8631496E-1,1.1623125E0,1.1638957E-1,-8.4822726E-1,-2.8930607E-1,5.030474E-1,-2.8229442E-1,-1.2884803E-2,2.3602637E-2,-1.1816352E-1,5.972143E-4,7.309442E-2,1.7163324E-1,3.69481E-2,-5.4712106E-2,-1.18137136E-1,-6.233672E-2,-6.560821E-3,-4.269805E-2,8.4520206E-2,-2.7579565E-2,-9.095571E-2,-1.7200714E-2],"categories":[],"categories_nodes":[],"categories_segments":[],"categories_sizes":[],"default_left":[0,0,0,0,0,0,0,0,0,0,0,0,0,0,0,0,0,0,0,0,0,0,0,0,0,0,0,0,0,0,0],"id":38,"left_children":[1,3,5,7,9,11,13,15,17,19,21,23,25,27,29,-1,-1,-1,-1,-1,-1,-1,-1,-1,-1,-1,-1,-1,-1,-1,-1],"loss_changes":[3.6734325E1,1.1339015E2,9.674325E1,3.7709576E1,1.6539377E2,3.665348E1,1.5116522E2,6.378651E1,1.350394E2,4.7737732E1,9.726503E1,1.2298058E1,1.127466E1,1.1482155E2,3.927564E1,0E0,0E0,0E0,0E0,0E0,0E0,0E0,0E0,0E0,0E0,0E0,0E0,0E0,0E0,0E0,0E0],"parents":[2147483647,0,0,1,1,2,2,3,3,4,4,5,5,6,6,7,7,8,8,9,9,10,10,11,11,12,12,13,13,14,14],"right_children":[2,4,6,8,10,12,14,16,18,20,22,24,26,28,30,-1,-1,-1,-1,-1,-1,-1,-1,-1,-1,-1,-1,-1,-1,-1,-1],"split_conditions":[1.8E1,1.5E1,4E0,1.2E1,3E0,2E1,6E0,9E0,1.3E1,2E0,1.7E1,2E0,2E0,2.2E1,1.9E1,-1.2884803E-2,2.3602637E-2,-1.1816352E-1,5.972143E-4,7.309442E-2,1.7163324E-1,3.69481E-2,-5.4712106E-2,-1.18137136E-1,-6.233672E-2,-6.560821E-3,-4.269805E-2,8.4520206E-2,-2.7579565E-2,-9.095571E-2,-1.7200714E-2],"split_indices":[1,1,0,1,0,1,0,1,1,0,1,0,0,1,1,0,0,0,0,0,0,0,0,0,0,0,0,0,0,0,0],"split_type":[0,0,0,0,0,0,0,0,0,0,0,0,0,0,0,0,0,0,0,0,0,0,0,0,0,0,0,0,0,0,0],"sum_hessian":[4.828E3,3.291E3,1.537E3,2.51E3,7.81E2,5.39E2,9.98E2,1.995E3,5.15E2,2.04E2,5.77E2,1.73E2,3.66E2,4.29E2,5.69E2,1.198E3,7.97E2,1.26E2,3.89E2,1.16E2,8.8E1,4.18E2,1.59E2,6.8E1,1.05E2,1.4E2,2.26E2,2.98E2,1.31E2,8.4E1,4.85E2],"tree_param":{"num_deleted":"0","num_feature":"2","num_nodes":"31","size_leaf_vector":"1"}},{"base_weights":[-1.2812056E-3,3.9953247E-2,-1.5665202E-1,-4.9644724E-2,1.8527636E-1,-5.143367E-2,-7.343487E-1,5.0061695E-2,-4.4480518E-1,7.137327E-2,6.39084E-1,-2.1537553E-1,1.7165054E-1,-1.6721292E-1,-4.0746355E-1,-6.7988927E-3,4.8769563E-2,-2.3938617E-2,-2.7404135E-1,3.890595E-2,-2.9831251E-2,1.7847171E-1,-3.9911143E-2,-6.3433894E-3,-4.0501427E-2,5.900265E-2,-1.01733105E-2,-2.8786907E-2,-8.360564E-2],"categories":[],"categories_nodes":[],"categories_segments":[],"categories_sizes":[],"default_left":[0,0,0,0,0,0,0,0,0,0,0,0,0,0,0,0,0,0,0,0,0,0,0,0,0,0,0,0,0],"id":39,"left_children":[1,3,5,7,9,11,13,15,17,19,21,23,25,-1,27,-1,-1,-1,-1,-1,-1,-1,-1,-1,-1,-1,-1,-1,-1],"loss_changes":[3.0943876E1,4.9709038E1,6.153672E1,9.3085144E1,7.5215164E1,3.1416468E1,4.7139915E1,9.752116E1,2.2380731E2,1.3693842E2,3.4801447E2,1.4237246E1,4.1693306E1,0E0,5.7564316E0,0E0,0E0,0E0,0E0,0E0,0E0,0E0,0E0,0E0,0E0,0E0,0E0,0E0,0E0],"parents":[2147483647,0,0,1,1,2,2,3,3,4,4,5,5,6,6,7,7,8,8,9,9,10,10,11,11,12,12,14,14],"right_children":[2,4,6,8,10,12,14,16,18,20,22,24,26,-1,28,-1,-1,-1,-1,-1,-1,-1,-1,-1,-1,-1,-1,-1,-1],"split_conditions":[2E1,1.4E1,7E0,7E0,7E0,5E0,2.1E1,6E0,1.3E1,5E0,1.7E1,2.2E1,6E0,-1.6721292E-1,2.3E1,-6.7988927E-3,4.8769563E-2,-2.3938617E-2,-2.7404135E-1,3.890595E-2,-2.9831251E-2,1.7847171E-1,-3.9911143E-2,-6.3433894E-3,-4.0501427E-2,5.900265E-2,-1.01733105E-2,-2.8786907E-2,-8.360564E-2],"split_indices":[1,1,0,0,0,0,1,0,1,0,1,1,0,0,1,0,0,0,0,0,0,0,0,0,0,0,0,0,0],"split_type":[0,0,0,0,0,0,0,0,0,0,0,0,0,0,0,0,0,0,0,0,0,0,0,0,0,0,0,0,0],"sum_hessian":[4.828E3,3.816E3,1.012E3,2.361E3,1.455E3,8.57E2,1.55E2,1.886E3,4.75E2,1.164E3,2.91E2,4.94E2,3.63E2,3.9E1,1.16E2,1.486E3,4E2,4.37E2,3.8E1,6.26E2,5.38E2,1.38E2,1.53E2,2.75E2,2.19E2,1.43E2,2.2E2,9.2E1,2.4E1],"tree_param":{"num_deleted":"0","num_feature":"2","num_nodes":"29","size_leaf_vector":"1"}},{"base_weights":[-1.2329515E-3,-2.4428214E-1,2.3432527E-2,-3.1051E-1,-7.414565E-2,9.3803234E-2,-1.06892064E-1,-1.2986356E-1,-3.8394725E-1,1.2287579E-2,-1.193337E-1,2.5610828E-1,-4.421697E-2,-4.2179373E-1,6.343206E-2,-5.234209E-4,-1.6564412E-2,-7.624563E-2,-2.8353913E-2,-9.0972865E-3,-1.2635029E-2,1.1938175E-2,1.02269314E-1,-6.141885E-2,1.9611625E-2,-8.031244E-2,-2.3985008E-2,4.3735877E-2,-2.1876428E-2],"categories":[],"categories_nodes":[],"categories_segments":[],"categories_sizes":[],"default_left":[0,0,0,0,0,0,0,0,0,0,0,0,0,0,0,0,0,0,0,0,0,0,0,0,0,0,0,0,0],"id":40,"left_children":[1,3,5,7,9,11,13,15,17,-1,19,21,23,25,27,-1,-1,-1,-1,-1,-1,-1,-1,-1,-1,-1,-1,-1,-1],"loss_changes":[2.8955212E1,4.9911385E0,4.0225014E1,4.195318E0,1.1364429E0,6.381045E1,8.251792E1,4.1830802E-1,8.411037E0,0E0,9.0020895E-3,1.3707748E2,2.110744E2,3.727294E1,1.0551091E2,0E0,0E0,0E0,0E0,0E0,0E0,0E0,0E0,0E0,0E0,0E0,0E0,0E0,0E0],"parents":[2147483647,0,0,1,1,2,2,3,3,4,4,5,5,6,6,7,7,8,8,10,10,11,11,12,12,13,13,14,14],"right_children":[2,4,6,8,10,12,14,16,18,-1,20,22,24,26,28,-1,-1,-1,-1,-1,-1,-1,-1,-1,-1,-1,-1,-1,-1],"split_conditions":[3E0,7E0,1.8E1,2E0,1E0,5E0,4E0,2E0,3E0,1.2287579E-2,2E0,1.6E1,6E0,2E1,6E0,-5.234209E-4,-1.6564412E-2,-7.624563E-2,-2.8353913E-2,-9.0972865E-3,-1.2635029E-2,1.1938175E-2,1.02269314E-1,-6.141885E-2,1.9611625E-2,-8.031244E-2,-2.3985008E-2,4.3735877E-2,-2.1876428E-2],"split_indices":[1,0,1,0,1,0,0,1,0,0,1,1,0,1,0,0,0,0,0,0,0,0,0,0,0,0,0,0,0],"split_type":[0,0,0,0,0,0,0,0,0,0,0,0,0,0,0,0,0,0,0,0,0,0,0,0,0,0,0,0,0],"sum_hessian":[4.828E3,4.44E2,4.384E3,3.19E2,1.25E2,2.847E3,1.537E3,9.3E1,2.26E2,2.3E1,1.02E2,1.308E3,1.539E3,5.39E2,9.98E2,2.1E1,7.2E1,4.6E1,1.8E2,2.3E1,7.9E1,1.111E3,1.97E2,4.56E2,1.083E3,1.73E2,3.66E2,4.29E2,5.69E2],"tree_param":{"num_deleted":"0","num_feature":"2","num_nodes":"29","size_leaf_vector":"1"}},{"base_weights":[-1.1388642E-3,1.1361468E-2,-4.425894E-1,-2.0427915E-1,3.756097E-2,-2.9425812E-1,-6.0273117E-1,-2.6911375E-1,-4.278775E-2,7.645487E-2,-1.4030445E-1,-5.409127E-2,-1.5679808E-1,-5.0262094E-2,-7.347939E-2,-1.2808739E-2,-3.348262E-2,1.111002E-2,-7.222745E-3,2.8244296E-2,1.037327E-3,-5.7727892E-2,2.0092927E-2,-9.828697E-3,-2.1357981E-2],"categories":[],"categories_nodes":[],"categories_segments":[],"categories_sizes":[],"default_left":[0,0,0,0,0,0,0,0,0,0,0,0,0,0,0,0,0,0,0,0,0,0,0,0,0],"id":41,"left_children":[1,3,5,7,9,11,13,15,17,19,21,-1,23,-1,-1,-1,-1,-1,-1,-1,-1,-1,-1,-1,-1],"loss_changes":[2.6652796E1,2.6544205E1,2.9819279E0,5.317833E0,2.8989729E1,2.322451E0,4.635887E-1,3.3211002E0,6.7399555E-1,4.6795204E1,1.12247025E2,0E0,1.351589E-1,0E0,0E0,0E0,0E0,0E0,0E0,0E0,0E0,0E0,0E0,0E0,0E0],"parents":[2147483647,0,0,1,1,2,2,3,3,4,4,5,5,6,6,7,7,8,8,9,9,10,10,12,12],"right_children":[2,4,6,8,10,12,14,16,18,20,22,-1,24,-1,-1,-1,-1,-1,-1,-1,-1,-1,-1,-1,-1],"split_conditions":[2.3E1,4E0,6E0,7E0,7E0,2E0,7E0,2E0,1E0,1E1,1.4E1,-5.409127E-2,5E0,-5.0262094E-2,-7.347939E-2,-1.2808739E-2,-3.348262E-2,1.111002E-2,-7.222745E-3,2.8244296E-2,1.037327E-3,-5.7727892E-2,2.0092927E-2,-9.828697E-3,-2.1357981E-2],"split_indices":[1,1,0,0,0,0,0,0,1,1,1,0,0,0,0,0,0,0,0,0,0,0,0,0,0],"split_type":[0,0,0,0,0,0,0,0,0,0,0,0,0,0,0,0,0,0,0,0,0,0,0,0,0],"sum_hessian":[4.828E3,4.696E3,1.32E2,5.08E2,4.188E3,7E1,6.2E1,3.62E2,1.46E2,3.437E3,7.51E2,2.4E1,4.6E1,3.8E1,2.4E1,1.16E2,2.46E2,2.3E1,1.23E2,8.34E2,2.603E3,3.29E2,4.22E2,2.4E1,2.2E1],"tree_param":{"num_deleted":"0","num_feature":"2","num_nodes":"25","size_leaf_vector":"1"}},{"base_weights":[-1.0788379E-3,2.9081311E-2,-1.6208987E-1,-1.0625377E-1,8.561012E-2,-1.1162779E-1,-3.9990208E-1,1.8026374E-1,-2.1300258E-1,-2.6293704E-1,1.3333753E-1,-2.2245517E-1,1.3266463E-3,-2.6603368E-1,-5.44422E-1,-1.2225559E-2,8.751541E-2,-1.1262017E-2,-3.822251E-2,-8.588969E-2,4.5299605E-3,5.247991E-2,8.5259E-3,-4.8713647E-3,-3.6965024E-2,4.415747E-2,-1.6473766E-2,-4.8898514E-2,-1.4178219E-2,-4.536473E-2,-6.642537E-2],"categories":[],"categories_nodes":[],"categories_segments":[],"categories_sizes":[],"default_left":[0,0,0,0,0,0,0,0,0,0,0,0,0,0,0,0,0,0,0,0,0,0,0,0,0,0,0,0,0,0,0],"id":42,"left_children":[1,3,5,7,9,11,13,15,17,19,21,23,25,27,29,-1,-1,-1,-1,-1,-1,-1,-1,-1,-1,-1,-1,-1,-1,-1,-1],"loss_changes":[2.34549E1,3.1130646E1,9.099741E0,3.6710297E1,4.777823E1,7.886916E0,2.4282684E0,6.863798E1,1.4803562E1,6.3597942E1,4.7478035E1,8.114491E0,2.2956015E1,1.8975167E0,3.8395882E-1,0E0,0E0,0E0,0E0,0E0,0E0,0E0,0E0,0E0,0E0,0E0,0E0,0E0,0E0,0E0,0E0],"parents":[2147483647,0,0,1,1,2,2,3,3,4,4,5,5,6,6,7,7,8,8,9,9,10,10,11,11,12,12,13,13,14,14],"right_children":[2,4,6,8,10,12,14,16,18,20,22,24,26,28,30,-1,-1,-1,-1,-1,-1,-1,-1,-1,-1,-1,-1,-1,-1,-1,-1],"split_conditions":[2.1E1,9E0,2.3E1,3E0,2E0,5E0,6E0,5E0,5E0,1.3E1,1E1,2.2E1,6E0,2E0,7E0,-1.2225559E-2,8.751541E-2,-1.1262017E-2,-3.822251E-2,-8.588969E-2,4.5299605E-3,5.247991E-2,8.5259E-3,-4.8713647E-3,-3.6965024E-2,4.415747E-2,-1.6473766E-2,-4.8898514E-2,-1.4178219E-2,-4.536473E-2,-6.642537E-2],"split_indices":[1,1,1,0,0,0,0,1,1,1,1,1,0,0,0,0,0,0,0,0,0,0,0,0,0,0,0,0,0,0,0],"split_type":[0,0,0,0,0,0,0,0,0,0,0,0,0,0,0,0,0,0,0,0,0,0,0,0,0,0,0,0,0,0,0],"sum_hessian":[4.828E3,4.067E3,7.61E2,1.198E3,2.869E3,6.29E2,1.32E2,3.25E2,8.73E2,3.45E2,2.524E3,3.17E2,3.12E2,7E1,6.2E1,2.27E2,9.8E1,5.49E2,3.24E2,1.17E2,2.28E2,2.75E2,2.249E3,1.46E2,1.71E2,8.5E1,2.27E2,2.4E1,4.6E1,3.8E1,2.4E1],"tree_param":{"num_deleted":"0","num_feature":"2","num_nodes":"31","size_leaf_vector":"1"}},{"base_weights":[-1.0089655E-3,4.831504E-2,-8.499998E-2,-3.538064E-2,4.4252056E-1,3.1723625E-3,-5.067537E-1,2.0425526E-2,-2.5118244E-1,2.504502E-1,1.3726815E0,-4.0464044E-1,8.886714E-2,-1.0297618E0,-2.8371012E-1,-9.560686E-3,1.947393E-2,-1.0424043E-1,7.1159116E-4,1.4458844E-1,2.9822446E-3,1.9882141E-1,8.045063E-2,-9.098733E-2,1.7465092E-3,2.5371242E-2,-1.2643727E-2,-7.208743E-2,-1.3964054E-1,5.751417E-2,-6.287355E-2],"categories":[],"categories_nodes":[],"categories_segments":[],"categories_sizes":[],"default_left":[0,0,0,0,0,0,0,0,0,0,0,0,0,0,0,0,0,0,0,0,0,0,0,0,0,0,0,0,0,0,0],"id":43,"left_children":[1,3,5,7,9,11,13,15,17,19,21,23,25,27,29,-1,-1,-1,-1,-1,-1,-1,-1,-1,-1,-1,-1,-1,-1,-1,-1],"loss_changes":[2.000956E1,1.0041426E2,6.64548E1,3.0245283E1,9.488004E1,5.1723206E1,3.5753807E1,4.0389805E1,1.05463E2,1.16796326E2,3.0225937E1,5.4824116E1,4.343869E1,9.412506E0,6.49606E1,0E0,0E0,0E0,0E0,0E0,0E0,0E0,0E0,0E0,0E0,0E0,0E0,0E0,0E0,0E0,0E0],"parents":[2147483647,0,0,1,1,2,2,3,3,4,4,5,5,6,6,7,7,8,8,9,9,10,10,11,11,12,12,13,13,14,14],"right_children":[2,4,6,8,10,12,14,16,18,20,22,24,26,28,30,-1,-1,-1,-1,-1,-1,-1,-1,-1,-1,-1,-1,-1,-1,-1,-1],"split_conditions":[1.7E1,1.5E1,7E0,1.2E1,7E0,2E0,1.9E1,9E0,1.3E1,2E0,1.6E1,2E1,2.1E1,1.8E1,2E1,-9.560686E-3,1.947393E-2,-1.0424043E-1,7.1159116E-4,1.4458844E-1,2.9822446E-3,1.9882141E-1,8.045063E-2,-9.098733E-2,1.7465092E-3,2.5371242E-2,-1.2643727E-2,-7.208743E-2,-1.3964054E-1,5.751417E-2,-6.287355E-2],"split_indices":[1,1,0,1,0,0,1,1,1,0,1,1,1,1,1,0,0,0,0,0,0,0,0,0,0,0,0,0,0,0,0],"split_type":[0,0,0,0,0,0,0,0,0,0,0,0,0,0,0,0,0,0,0,0,0,0,0,0,0,0,0,0,0,0,0],"sum_hessian":[4.828E3,3.042E3,1.786E3,2.51E3,5.32E2,1.478E3,3.08E2,1.995E3,5.15E2,4.42E2,9E1,2.56E2,1.222E3,9.1E1,2.17E2,1.198E3,7.97E2,1.26E2,3.89E2,6.8E1,3.74E2,4.2E1,4.8E1,1.16E2,1.4E2,6.92E2,5.3E2,5.1E1,4E1,6.2E1,1.55E2],"tree_param":{"num_deleted":"0","num_feature":"2","num_nodes":"31","size_leaf_vector":"1"}},{"base_weights":[-8.999278E-4,4.3592963E-2,-7.666432E-2,-3.1879827E-2,3.9906874E-1,2.8033035E-3,-4.5678064E-1,1.8387945E-2,-2.262647E-1,2.2573757E-1,1.2384822E0,-3.6452347E-1,7.99907E-2,-9.290864E-1,-2.5536364E-1,8.362204E-3,-2.3338737E-2,-9.389847E-2,6.406305E-4,1.3033913E-1,2.6847306E-3,1.7940159E-1,7.256981E-2,-8.196633E-2,1.5731037E-3,2.2837749E-2,-1.1381727E-2,-6.501724E-2,-1.2601705E-1,5.1854044E-2,-5.6626488E-2],"categories":[],"categories_nodes":[],"categories_segments":[],"categories_sizes":[],"default_left":[0,0,0,0,0,0,0,0,0,0,0,0,0,0,0,0,0,0,0,0,0,0,0,0,0,0,0,0,0,0,0],"id":44,"left_children":[1,3,5,7,9,11,13,15,17,19,21,23,25,27,29,-1,-1,-1,-1,-1,-1,-1,-1,-1,-1,-1,-1,-1,-1,-1,-1],"loss_changes":[1.628179E1,8.16526E1,5.398108E1,2.4539883E1,7.727007E1,4.196324E1,2.9158043E1,3.2802486E1,8.557391E1,9.491535E1,2.4621155E1,4.449162E1,3.5197693E1,7.676323E0,5.2746113E1,0E0,0E0,0E0,0E0,0E0,0E0,0E0,0E0,0E0,0E0,0E0,0E0,0E0,0E0,0E0,0E0],"parents":[2147483647,0,0,1,1,2,2,3,3,4,4,5,5,6,6,7,7,8,8,9,9,10,10,11,11,12,12,13,13,14,14],"right_children":[2,4,6,8,10,12,14,16,18,20,22,24,26,28,30,-1,-1,-1,-1,-1,-1,-1,-1,-1,-1,-1,-1,-1,-1,-1,-1],"split_conditions":[1.7E1,1.5E1,7E0,1.2E1,7E0,2E0,1.9E1,7E0,1.3E1,2E0,1.6E1,2E1,2.1E1,1.8E1,2E1,8.362204E-3,-2.3338737E-2,-9.389847E-2,6.406305E-4,1.3033913E-1,2.6847306E-3,1.7940159E-1,7.256981E-2,-8.196633E-2,1.5731037E-3,2.2837749E-2,-1.1381727E-2,-6.501724E-2,-1.2601705E-1,5.1854044E-2,-5.6626488E-2],"split_indices":[1,1,0,1,0,0,1,0,1,0,1,1,1,1,1,0,0,0,0,0,0,0,0,0,0,0,0,0,0,0,0],"split_type":[0,0,0,0,0,0,0,0,0,0,0,0,0,0,0,0,0,0,0,0,0,0,0,0,0,0,0,0,0,0,0],"sum_hessian":[4.828E3,3.042E3,1.786E3,2.51E3,5.32E2,1.478E3,3.08E2,1.995E3,5.15E2,4.42E2,9E1,2.56E2,1.222E3,9.1E1,2.17E2,1.585E3,4.1E2,1.26E2,3.89E2,6.8E1,3.74E2,4.2E1,4.8E1,1.16E2,1.4E2,6.92E2,5.3E2,5.1E1,4E1,6.2E1,1.55E2],"tree_param":{"num_deleted":"0","num_feature":"2","num_nodes":"31","size_leaf_vector":"1"}},{"base_weights":[-8.0743694E-4,-1.7774762E-1,1.7149048E-2,-2.3962966E-1,-1.9176204E-2,7.647656E-2,-6.914606E-2,-4.9372807E-2,-2.9270408E-1,1.42774535E-2,-5.6726124E-2,3.359724E-3,3.5988376E-1,2.4763406E-3,-4.117363E-1,1.8964648E-3,-1.8399052E-2,-9.110539E-3,-4.1154213E-2,-3.3011835E-3,-6.3131335E-3,7.2239167E-3,-2.0381907E-2,2.034635E-2,1.1174035E-1,-3.2838397E-2,7.2000967E-3,-8.382541E-2,-2.2984928E-2],"categories":[],"categories_nodes":[],"categories_segments":[],"categories_sizes":[],"default_left":[0,0,0,0,0,0,0,0,0,0,0,0,0,0,0,0,0,0,0,0,0,0,0,0,0,0,0,0,0],"id":45,"left_children":[1,3,5,7,9,11,13,15,17,-1,19,21,23,25,27,-1,-1,-1,-1,-1,-1,-1,-1,-1,-1,-1,-1,-1,-1],"loss_changes":[1.5345861E1,4.3620663E0,2.2455061E1,3.216837E0,7.74335E-1,5.3854847E1,4.3848885E1,6.56649E-1,5.9519024E0,0E0,1.35611E-2,2.9511557E1,6.292859E1,3.4044987E1,2.377895E1,0E0,0E0,0E0,0E0,0E0,0E0,0E0,0E0,0E0,0E0,0E0,0E0,0E0,0E0],"parents":[2147483647,0,0,1,1,2,2,3,3,4,4,5,5,6,6,7,7,8,8,10,10,11,11,12,12,13,13,14,14],"right_children":[2,4,6,8,10,12,14,16,18,-1,20,22,24,26,28,-1,-1,-1,-1,-1,-1,-1,-1,-1,-1,-1,-1,-1,-1],"split_conditions":[3E0,7E0,1.7E1,1E0,1E0,1.5E1,7E0,6E0,2E0,1.42774535E-2,2E0,1.2E1,7E0,2E0,1.9E1,1.8964648E-3,-1.8399052E-2,-9.110539E-3,-4.1154213E-2,-3.3011835E-3,-6.3131335E-3,7.2239167E-3,-2.0381907E-2,2.034635E-2,1.1174035E-1,-3.2838397E-2,7.2000967E-3,-8.382541E-2,-2.2984928E-2],"split_indices":[1,0,1,1,1,1,0,0,0,0,1,1,0,0,1,0,0,0,0,0,0,0,0,0,0,0,0,0,0],"split_type":[0,0,0,0,0,0,0,0,0,0,0,0,0,0,0,0,0,0,0,0,0,0,0,0,0,0,0,0,0],"sum_hessian":[4.828E3,4.44E2,4.384E3,3.19E2,1.25E2,2.598E3,1.786E3,7E1,2.49E2,2.3E1,1.02E2,2.066E3,5.32E2,1.478E3,3.08E2,4.7E1,2.3E1,9.3E1,1.56E2,2.3E1,7.9E1,1.551E3,5.15E2,4.42E2,9E1,2.56E2,1.222E3,9.1E1,2.17E2],"tree_param":{"num_deleted":"0","num_feature":"2","num_nodes":"29","size_leaf_vector":"1"}},{"base_weights":[-7.4220856E-4,8.285624E-3,-3.1956166E-1,-8.895103E-2,3.907854E-2,-2.194393E-1,-4.2732555E-2,6.979484E-2,-2.7201968E-1,2.956443E-1,7.409401E-3,-4.137045E-2,-1.1143782E-1,-1.16856955E-2,4.579037E-2,-5.392974E-3,-7.782544E-2,5.5113345E-2,-1.04732476E-1,-7.07455E-3,1.3384171E-2,-5.9087756E-3,-1.6349494E-2],"categories":[],"categories_nodes":[],"categories_segments":[],"categories_sizes":[],"default_left":[0,0,0,0,0,0,0,0,0,0,0,0,0,0,0,0,0,0,0,0,0,0,0],"id":46,"left_children":[1,3,5,7,9,11,-1,13,15,17,19,-1,21,-1,-1,-1,-1,-1,-1,-1,-1,-1,-1],"loss_changes":[1.39017105E1,1.4067236E1,1.3412418E0,3.285836E1,2.8988588E1,1.4435444E0,0E0,4.3952885E1,5.7920498E1,1.350779E2,3.1402374E1,0E0,1.1842358E-1,0E0,0E0,0E0,0E0,0E0,0E0,0E0,0E0,0E0,0E0],"parents":[2147483647,0,0,1,1,2,2,3,3,4,4,5,5,7,7,8,8,9,9,10,10,12,12],"right_children":[2,4,6,8,10,12,-1,14,16,18,20,-1,22,-1,-1,-1,-1,-1,-1,-1,-1,-1,-1],"split_conditions":[2.3E1,8E0,6E0,5E0,1E1,2E0,-4.2732555E-2,5E0,5E0,7E0,6E0,-4.137045E-2,5E0,-1.16856955E-2,4.579037E-2,-5.392974E-3,-7.782544E-2,5.5113345E-2,-1.04732476E-1,-7.07455E-3,1.3384171E-2,-5.9087756E-3,-1.6349494E-2],"split_indices":[1,1,0,0,1,0,0,1,1,0,0,0,0,0,0,0,0,0,0,0,0,0,0],"split_type":[0,0,0,0,0,0,0,0,0,0,0,0,0,0,0,0,0,0,0,0,0,0,0],"sum_hessian":[4.828E3,4.696E3,1.32E2,1.129E3,3.567E3,7E1,6.2E1,6.05E2,5.24E2,3.91E2,3.176E3,2.4E1,4.6E1,4.09E2,1.96E2,3.67E2,1.57E2,3.29E2,6.2E1,1.963E3,1.213E3,2.4E1,2.2E1],"tree_param":{"num_deleted":"0","num_feature":"2","num_nodes":"23","size_leaf_vector":"1"}},{"base_weights":[-7.09091E-4,2.4472991E-2,-9.5594876E-2,-3.3673022E-2,1.1952022E-1,-2.3440886E-2,-4.9182904E-1,8.836005E-2,-4.1809303E-1,-1.8287283E-1,2.6125118E-1,-1.5622698E-1,1.57198E-1,-1.3897976E-1,-1.806276E-1,-9.206573E-3,3.3402096E-2,7.0570693E-3,-7.33745E-2,-5.0048344E-3,-4.2702805E-2,3.878113E-2,-4.7267242E-3,5.963645E-3,-2.4152419E-2,4.7145475E-2,-4.827789E-3,-2.3663219E-3,-2.8198956E-2],"categories":[],"categories_nodes":[],"categories_segments":[],"categories_sizes":[],"default_left":[0,0,0,0,0,0,0,0,0,0,0,0,0,0,0,0,0,0,0,0,0,0,0,0,0,0,0,0,0],"id":47,"left_children":[1,3,5,7,9,11,13,15,17,19,21,23,25,-1,27,-1,-1,-1,-1,-1,-1,-1,-1,-1,-1,-1,-1,-1,-1],"loss_changes":[1.1540856E1,2.1099123E1,2.8950016E1,1.11171364E2,6.2149685E1,2.060483E1,4.334303E1,7.976882E1,8.81272E1,1.4993622E1,3.8556847E1,9.128615E0,2.3527039E1,0E0,1.8548222E0,0E0,0E0,0E0,0E0,0E0,0E0,0E0,0E0,0E0,0E0,0E0,0E0,0E0,0E0],"parents":[2147483647,0,0,1,1,2,2,3,3,4,4,5,5,6,6,7,7,8,8,9,9,10,10,11,11,12,12,14,14],"right_children":[2,4,6,8,10,12,14,16,18,20,22,24,26,-1,28,-1,-1,-1,-1,-1,-1,-1,-1,-1,-1,-1,-1,-1,-1],"split_conditions":[2E1,6E0,7E0,5E0,9E0,5E0,2.1E1,1.3E1,1.1E1,5E0,1.7E1,2E0,6E0,-1.3897976E-1,2.2E1,-9.206573E-3,3.3402096E-2,7.0570693E-3,-7.33745E-2,-5.0048344E-3,-4.2702805E-2,3.878113E-2,-4.7267242E-3,5.963645E-3,-2.4152419E-2,4.7145475E-2,-4.827789E-3,-2.3663219E-3,-2.8198956E-2],"split_indices":[1,0,0,0,1,0,1,1,1,1,1,0,0,0,1,0,0,0,0,0,0,0,0,0,0,0,0,0,0],"split_type":[0,0,0,0,0,0,0,0,0,0,0,0,0,0,0,0,0,0,0,0,0,0,0,0,0,0,0,0,0],"sum_hessian":[4.828E3,3.816E3,1.012E3,2.368E3,1.448E3,8.57E2,1.55E2,1.798E3,5.7E2,4.62E2,9.86E2,4.94E2,3.63E2,3.9E1,1.16E2,1.037E3,7.61E2,2.24E2,3.46E2,3E2,1.62E2,6.99E2,2.87E2,1.4E2,3.54E2,1.43E2,2.2E2,4.6E1,7E1],"tree_param":{"num_deleted":"0","num_feature":"2","num_nodes":"29","size_leaf_vector":"1"}},{"base_weights":[-6.7973713E-4,7.412369E-3,-2.8645372E-1,-1.8420936E-1,2.0202871E-2,-2.0685157E-1,-3.7161723E-2,8.996547E-3,-2.736479E-1,4.7459383E-2,-9.348561E-2,-3.7971396E-2,-1.1050241E-1,-3.5094141E-3,1.3905664E-2,-5.854081E-2,-1.8254688E-2,-6.3922856E-4,2.2723576E-2,-3.6650825E-2,1.8427612E-2,-3.0228652E-3,-1.9295204E-2],"categories":[],"categories_nodes":[],"categories_segments":[],"categories_sizes":[],"default_left":[0,0,0,0,0,0,0,0,0,0,0,0,0,0,0,0,0,0,0,0,0,0,0],"id":48,"left_children":[1,3,5,7,9,11,-1,13,15,17,19,-1,21,-1,-1,-1,-1,-1,-1,-1,-1,-1,-1],"loss_changes":[1.11692505E1,1.15157795E1,8.2476425E-1,5.082798E0,1.3651337E1,1.1405563E0,0E0,5.4391736E-1,5.6018696E0,3.4398964E1,6.467916E1,0E0,3.0523878E-1,0E0,0E0,0E0,0E0,0E0,0E0,0E0,0E0,0E0,0E0],"parents":[2147483647,0,0,1,1,2,2,3,3,4,4,5,5,7,7,8,8,9,9,10,10,12,12],"right_children":[2,4,6,8,10,12,-1,14,16,18,20,-1,22,-1,-1,-1,-1,-1,-1,-1,-1,-1,-1],"split_conditions":[2.3E1,2E0,6E0,1E0,7E0,2E0,-3.7161723E-2,7E0,3E0,6E0,1.4E1,-3.7971396E-2,5E0,-3.5094141E-3,1.3905664E-2,-5.854081E-2,-1.8254688E-2,-6.3922856E-4,2.2723576E-2,-3.6650825E-2,1.8427612E-2,-3.0228652E-3,-1.9295204E-2],"split_indices":[1,1,0,1,0,0,0,0,0,0,1,0,0,0,0,0,0,0,0,0,0,0,0],"split_type":[0,0,0,0,0,0,0,0,0,0,0,0,0,0,0,0,0,0,0,0,0,0,0],"sum_hessian":[4.828E3,4.696E3,1.32E2,2.93E2,4.403E3,7E1,6.2E1,9.3E1,2E2,3.552E3,8.51E2,2.4E1,4.6E1,7E1,2.3E1,4.4E1,1.56E2,2.734E3,8.18E2,4.29E2,4.22E2,2.4E1,2.2E1],"tree_param":{"num_deleted":"0","num_feature":"2","num_nodes":"23","size_leaf_vector":"1"}},{"base_weights":[-6.450533E-4,3.251869E-2,-7.16297E-2,-2.1782992E-2,2.0683967E-1,-3.4281313E-1,7.502763E-2,2.3954721E-2,-1.9866419E-1,8.48441E-1,-2.107575E-2,-7.0977366E-1,-1.6789775E-1,3.7389606E-1,-1.5056615E-1,-5.658702E-3,1.4493917E-2,-8.1681624E-2,3.140875E-4,4.373912E-2,1.3792768E-1,-2.8850967E-2,2.685598E-2,-9.048932E-2,-5.042531E-2,6.0704285E-3,-3.091532E-2,1.2980585E-1,1.2544702E-2,-6.754577E-2,-5.845431E-3],"categories":[],"categories_nodes":[],"categories_segments":[],"categories_sizes":[],"default_left":[0,0,0,0,0,0,0,0,0,0,0,0,0,0,0,0,0,0,0,0,0,0,0,0,0,0,0,0,0,0,0],"id":49,"left_children":[1,3,5,7,9,11,13,15,17,19,21,23,25,27,29,-1,-1,-1,-1,-1,-1,-1,-1,-1,-1,-1,-1,-1,-1,-1,-1],"loss_changes":[1.1370359E1,3.1166325E1,6.1193577E1,2.0319103E1,1.143704E2,3.4541836E1,6.741173E1,1.9457819E1,6.437161E1,4.41277E1,4.4848415E1,6.521286E0,1.1869668E1,9.856828E1,2.7519295E1,0E0,0E0,0E0,0E0,0E0,0E0,0E0,0E0,0E0,0E0,0E0,0E0,0E0,0E0,0E0,0E0],"parents":[2147483647,0,0,1,1,2,2,3,3,4,4,5,5,6,6,7,7,8,8,9,9,10,10,11,11,12,12,13,13,14,14],"right_children":[2,4,6,8,10,12,14,16,18,20,22,24,26,28,30,-1,-1,-1,-1,-1,-1,-1,-1,-1,-1,-1,-1,-1,-1,-1,-1],"split_conditions":[1.8E1,1.5E1,4E0,1.2E1,3E0,2E1,6E0,9E0,1.3E1,2E0,6E0,1.9E1,2E0,1.9E1,1.9E1,-5.658702E-3,1.4493917E-2,-8.1681624E-2,3.140875E-4,4.373912E-2,1.3792768E-1,-2.8850967E-2,2.685598E-2,-9.048932E-2,-5.042531E-2,6.0704285E-3,-3.091532E-2,1.2980585E-1,1.2544702E-2,-6.754577E-2,-5.845431E-3],"split_indices":[1,1,0,1,0,1,0,1,1,0,0,1,0,1,1,0,0,0,0,0,0,0,0,0,0,0,0,0,0,0,0],"split_type":[0,0,0,0,0,0,0,0,0,0,0,0,0,0,0,0,0,0,0,0,0,0,0,0,0,0,0,0,0,0,0],"sum_hessian":[4.828E3,3.291E3,1.537E3,2.51E3,7.81E2,5.39E2,9.98E2,1.995E3,5.15E2,2.04E2,5.77E2,1.73E2,3.66E2,4.29E2,5.69E2,1.198E3,7.97E2,1.26E2,3.89E2,1.16E2,8.8E1,3E2,2.77E2,8.7E1,8.6E1,1.4E2,2.26E2,9E1,3.39E2,8.4E1,4.85E2],"tree_param":{"num_deleted":"0","num_feature":"2","num_nodes":"31","size_leaf_vector":"1"}}]},"name":"gbtree"},"learner_model_param":{"base_score":"[1.3785005E1]","boost_from_average":"1","num_class":"0","num_feature":"2","num_target":"1"},"objective":{"name":"reg:squarederror","reg_loss_param":{"scale_pos_weight":"1"}}},"version":[3,2,0]}